0,1,2,3,4,5,6,7,8,9,10,11,12,13,14,15,16,17,18,19,20,21,22,23,24,25,26,27,28,29,30,31,32,33,34,35,36,37,38,39,40,41,42,43,44,45,46,47,48,49,50,51,52,53,54,55,56,57,58,59,60,61,62,63,64,65,66,67,68,69,70,71,72,73,74,75,76,77,78,79,80,81,82,83,84,85,86,87,88,89,90,91,92,93,94,95,96,97,98,99,100,101,102,103,104,105,106,107,108,109,110,111,112,113,114,115,116,117,118,119,120,121,122,123,124,125,126,127,128,129,130,131,132,133,134,135,136,137,138,139,140,141,142,143,144,145,146,147,148,149,150,151,152,153,154,155,156,157,158,159,160,161,162,163,164,165,166,167,168,169,170,171,172,173,174,175,176,177,178,179,180,181,182,183,184,185,186,187,188,189,190,191,192,193,194,195,196,197,198,199,200,201,202,203,204,205,206,207,208,209,210,211,212,213,214,215,216,217,218,219,220,221,222,223,224,225,226,227,228,229,230,231,232,233,234,235,236,237,238,239,240,241,242,243,244,245,246,247,248,249,250,251,252,253,254,255,256,257,258,259,260,261,262,263,264,265,266,267,268,269,270,271,272,273,274,275,276,277,278,279,280,281,282,283,284,285,286,287,288,289,290,291,292,293,294,295,296,297,298,299,300,y,count
service,0.17176,0.51665,0.3556,-0.27693,0.16905,-0.37677,0.31201999999999996,-0.37869,0.012865999999999999,2.6041,-0.34952,-0.16547,0.37229,-0.071096,-0.66733,-0.043867,-0.45471999999999996,2.1621,0.032726,-0.038051999999999996,-0.2961,-0.25189,-0.49899,-0.11632999999999999,0.6672100000000001,0.09312000000000001,-0.23656,-0.43818999999999997,0.2318,0.33309,0.4282,-0.1914,0.06662799999999999,0.31659,-0.40443,-0.20016,-0.28017,-0.4562,0.060283,0.33455999999999997,0.23306999999999997,0.19868,0.38844,-0.061654999999999995,0.22435,0.37178,0.25685,0.36913,0.050256999999999996,0.22036999999999998,0.24084,-0.43762,0.09426699999999999,0.14568,-0.2722,0.24009,0.13964000000000001,-0.32832,-0.19872,-0.2125,0.43633,-0.31419,0.13969,-0.32361,0.60507,0.48176,0.11947999999999999,0.075292,0.07603700000000001,0.0029243000000000003,-0.25574,0.29274,-0.14912,-0.45916,0.13982999999999998,0.39565,0.26083,0.086643,-0.053373000000000004,0.5391100000000001,0.19412000000000001,0.22432,0.22916999999999998,-0.14983,0.14338,0.11043,-0.25301999999999997,0.63269,0.16702999999999998,-0.48756000000000005,-0.027105,0.11760999999999999,-0.19856,-0.35389,0.13502999999999998,0.077964,-0.061099,-0.43349,0.023419,0.052672000000000004,-0.40614,0.24598000000000003,0.24369000000000002,-0.13552,-0.6106,-0.8386399999999999,0.23517,0.18095,0.18403,-0.19844,-0.18243,-0.21398000000000003,0.7047800000000001,0.29327,0.63503,-0.249,0.51294,0.014332,-0.33424,0.12322999999999999,0.041349000000000004,0.073702,-0.35113,-0.058880999999999996,-0.11659000000000001,-0.25156999999999996,0.49337,-0.39264,-0.13922,-0.070648,0.14406,-0.70323,-0.23584000000000002,-0.48555,-0.41778000000000004,0.38946,-0.25440999999999997,-0.059330999999999995,0.40557,0.26631,0.18037999999999998,0.33983,0.53588,0.070789,-0.17222,-0.051124,-0.12897,0.06720599999999999,0.22533000000000003,0.12797999999999998,-0.39957,0.33349,0.4689,-0.32008000000000003,0.23578000000000002,0.74188,0.30474,-0.35386,0.48561000000000004,0.31411999999999995,-0.3726,0.094261,0.052743,-0.5159699999999999,0.23054000000000002,-0.16529000000000002,0.17453,0.2235,-0.081742,-0.42700000000000005,-0.098709,-0.37577,0.071502,-0.19829000000000002,0.11017,0.08506,-0.2934,0.28145,-0.1976,0.5048699999999999,0.004875399999999999,-0.57372,-0.5777800000000001,-0.29433000000000004,-0.22626999999999997,0.11168,0.081551,-0.25961999999999996,0.046426999999999996,-0.59702,-0.019355,0.18179,0.46663999999999994,0.34038,-0.8458600000000001,-0.076945,0.062931,-0.44531000000000004,0.18802,-0.0086328,0.46648,-0.3755,-0.18884,0.078011,0.20914000000000002,0.19035,-0.33678,0.090837,-0.20179,0.20584000000000002,-0.3285,-0.033232,0.15869,0.15058,0.294,-0.031061000000000002,0.1875,-0.45047,-0.63867,0.29579,-0.15249000000000001,-0.21302,0.18805999999999998,0.90874,-0.19793,-0.1452,0.15861,-0.10767,-0.16435,0.22975,0.057106,0.034597,0.21978000000000003,-0.17439000000000002,0.36028000000000004,0.18600000000000003,-0.11289,-0.54019,-0.28025,0.034283,0.39649,-0.013057,0.40973000000000004,-0.02153,-0.11615999999999999,-0.46507,-0.69014,-0.54508,-0.2725,-0.41826,0.42288000000000003,-0.10533,-0.042362000000000004,-0.31638,-0.20406,0.27239,0.08680700000000001,-0.7336600000000001,0.13142,-0.19193,0.50977,0.41197,0.29664,-0.45119,-0.54738,-0.36513,0.13912,0.48466000000000004,0.9302799999999999,0.1263,-0.26361,0.31573,0.5497,-0.072048,-0.011761,0.16579000000000002,-0.12155999999999999,-0.29531999999999997,1.237,0.33435,-0.65993,0.18108,0.35799000000000003,0.32095999999999997,-0.20931999999999998,0.039227,0.16817000000000001,0.1115,-0.057046000000000006,-0.18684,-0.4135,-0.18023,0.13355,0.42811000000000005,0.2455,-0.70817,0.15469000000000002,-0.022907,-0.21833000000000002,0.18725999999999998,1,0
popular,0.18243,-0.0055057,0.0589,-0.00089541,0.51723,0.060865999999999996,0.042537,-0.037374,0.052067999999999996,1.8222,-0.23387,-0.22983,0.24759,-0.0064696,-0.046258999999999995,-0.2602,-0.24069000000000002,0.73418,0.27271,-0.39742,-0.67213,-0.11687,-0.41344,-0.19752,0.23959,0.13360999999999998,-0.054765,-0.16307,-0.3949,0.13017,0.5043300000000001,-0.049586,0.12395999999999999,0.020436000000000003,0.2087,0.096174,-0.1195,-0.12789,-0.061877,0.15053,-0.48028999999999994,-0.014272,0.005618,0.29693,-0.053405999999999995,0.31638,-0.052927999999999996,-0.15306,0.24398000000000003,-0.37727,-0.70491,-0.019253,0.21366999999999997,0.16552999999999998,-0.17814000000000002,-0.19487000000000002,0.089519,-0.28081,-0.14687999999999998,0.17831,0.095389,0.14064000000000002,-0.10726,0.57405,0.33335,-0.12354000000000001,-0.037903,-0.4015,0.013529,-0.34986,0.18444000000000002,0.08278300000000001,0.10519,0.017304,0.1393,-0.13949,-0.12485999999999998,0.34201,-0.033519,0.635,-0.010783,-0.56488,-0.26024,-0.17944000000000002,0.20621,0.051630999999999996,-1.4087,0.73001,0.10588,-0.31192,-0.20067000000000002,0.06326699999999999,0.31606,0.5687300000000001,0.29033000000000003,-0.099351,0.33076,0.2852,-0.093278,-0.68274,-0.17004,0.078987,-0.16075,-0.026012999999999998,0.061098,-0.67479,-0.20331,-0.11880999999999999,0.35005,0.093069,-0.068987,-0.14767,-0.24241,0.045952,-0.3771,-0.15264,-0.18302000000000002,0.32216,-0.21581,0.17759,-0.10146000000000001,0.27321999999999996,-0.14375,-0.29905,-0.11971,0.44498000000000004,0.32479,0.10397,0.50773,0.08141699999999999,0.035798,-0.57201,0.26397,-0.20354,-0.59296,0.025955000000000002,-0.08482,-0.18269000000000002,0.10236,-0.18529,-1.6372,0.09361599999999999,0.5309699999999999,-0.28551,0.10035,-0.42215,0.47005,-0.5319,0.15189,0.054537,-0.06565499999999999,0.5647,0.032764999999999996,0.15199000000000001,-0.15335,-0.037882,-0.15538,-0.14415,-0.093957,-0.24120999999999998,-0.071743,-0.12064000000000001,0.15639,-0.25913,0.17823,-0.16933,0.07312,0.15532,0.28295,-0.40560999999999997,0.54971,0.33960999999999997,-0.23043000000000002,-0.062863,-0.47897,-0.060203999999999994,0.16241,-0.38073,0.1769,0.41768999999999995,0.15143,-0.099889,-0.037429000000000004,-0.56471,-0.13691,-0.20107,0.093514,-0.12671,0.0036755000000000004,-0.094321,-0.38151,0.07658999999999999,0.32609,0.12607000000000002,0.46498999999999996,-0.5565100000000001,-0.071215,0.50537,-0.067,0.54962,-0.021408,-0.43546,0.12957,0.12114000000000001,0.19195,-0.063466,-0.090658,-0.4126,-0.32347,0.1994,-0.7862100000000001,0.056842,-0.26511,-0.45319,0.086377,-0.007481300000000001,0.32104,0.31404,-0.25943,-0.32356999999999997,-0.030751,0.23515999999999998,0.26491,0.13299,0.19378,-0.14937999999999999,-0.2082,0.34586,0.17257,0.67994,0.0089021,0.31705,0.050923,-0.025535,-0.0050588000000000004,-0.40875,0.19735,0.092696,-0.32211,0.42108,-0.37956999999999996,-0.050181,-0.0051099,-0.17178,0.32909,0.093803,0.14864000000000002,0.034557,-0.2752,-0.25645999999999997,0.08428,-0.024252000000000003,0.10305,0.041373,0.047911,0.38424,0.25131,0.39991,0.26078,-0.14568,0.35502,0.12125,-0.009628399999999999,0.13624,-0.28864,-0.45253999999999994,0.11460999999999999,-0.29980999999999997,0.14545,0.21525999999999998,-0.4607,-0.10092999999999999,-0.40907,-0.29148,0.38019000000000003,-0.14003,-0.05185599999999999,0.29284,0.073574,0.19029000000000001,0.059917,0.2578,0.095664,0.36266,-0.014466,0.12811,0.20934,-0.20893,-0.068365,-0.34784,-0.19159,-0.32159,-0.057502,0.42675,0.10354000000000001,0.054933,0.26905,-0.56282,0.38105,0.36803,11,0
national,-0.027939,0.35628000000000004,0.65256,0.31628,0.39446,-0.38185,0.3496,0.51465,-0.36056,3.2709,-0.9367200000000001,-0.23881,0.10399000000000001,-0.32277,0.40405,-0.069105,0.30044,0.8064,-0.36664,0.50216,0.67606,-0.043079,0.39077,-0.018675999999999998,0.20452,0.13596,-0.13566,0.19100999999999999,0.14361,0.61702,0.44272,0.028643000000000002,0.75858,-0.16301,-0.10845999999999999,0.019078,-0.15947,-0.23016999999999999,0.09610700000000001,0.5279699999999999,0.08316699999999999,0.47123000000000004,0.25249,0.30438000000000004,0.060709000000000006,-0.3251,0.13815,0.10854000000000001,0.060144,-0.31924,-0.18442999999999998,-0.12435,0.21258000000000002,-0.24483000000000002,-0.0069167000000000005,0.12553,0.22121,0.33185,0.13271,0.15254,-0.10622999999999999,0.61633,-0.039928,0.12409,-0.13047,0.32976,0.16523,-0.13538,0.20795,-0.24645,0.15162,-0.24824000000000002,0.49326000000000003,0.22649,-0.2005,0.33744,-0.22821999999999998,0.095752,0.16734000000000002,0.05745499999999999,0.079639,0.18864,-0.16925,0.46297,-0.073758,-0.38831,-1.209,0.070733,0.08670800000000001,-0.36837,-0.33045,-0.02622,-0.051354,-0.66055,-0.010983,-0.19702,-0.65245,0.49221000000000004,0.35801,-0.16103,-0.21645,-0.47429,-0.13577999999999998,0.026664999999999998,-0.50945,-1.3888,-0.079813,-0.12902,0.27771999999999997,0.22641,-0.0088537,0.6118,-0.52662,-0.2714,-0.34581,0.23864000000000002,0.26331,0.13867000000000002,0.27451,0.08053300000000001,-0.038216,0.23243000000000003,-0.26683,-0.064243,-0.5848399999999999,0.13685,0.5442100000000001,0.59582,-0.48923,-0.4126,0.0035949,-0.080316,0.55478,-0.093578,0.23615999999999998,0.007109300000000001,0.14215999999999998,0.020724,0.56333,-0.055214,-0.42200000000000004,0.37714000000000003,0.77481,-0.26354,0.21195999999999998,-0.13742000000000001,0.28494,0.27769,-0.39663000000000004,0.030061,-0.47218999999999994,0.10236,0.16394,-0.065148,-0.016423,-0.095735,0.15884,0.41243,-0.16471,0.5344899999999999,0.026872000000000004,0.46526000000000006,0.19301,-0.10081,-0.4982,0.034186,0.088572,-0.31396,-0.11655,-0.16067,-0.15989,0.050878,-0.1663,0.025833,0.072115,-0.13065,0.22021999999999997,0.13744,0.031983,0.41678000000000004,-0.10203999999999999,0.15256,-0.34379,-0.38775,0.1697,0.09736,0.0011574000000000003,0.59322,0.27766,0.1426,-0.089885,-0.1505,0.5657399999999999,-0.057465999999999996,-0.1818,0.021321,0.076149,-0.059427,0.28597,-0.074848,0.18472,-0.04915,-0.17884,0.44903999999999994,0.24768,0.15552,-0.091988,0.026123,-0.027306,-0.27528,0.25096999999999997,0.43099,0.13432,-0.067892,0.0097758,0.61761,-0.48973,-0.27292,-0.24800999999999998,-0.076359,-0.31026,0.013226,-0.0013099000000000001,-0.19609000000000001,0.084811,0.28245,0.31035,-0.051559,0.20699,0.47897,-0.18571,0.059988,0.15,-0.23125,-0.28722,-0.087492,-0.33633,-0.050660000000000004,0.031179000000000002,0.30251,-0.42439,-0.41691999999999996,0.47938000000000003,-0.1545,-0.2906,-0.3038,0.6059399999999999,-6.3836e-06,-0.091275,-0.9507899999999999,0.47753999999999996,0.50345,-0.76505,0.073789,-0.12752,0.26649,-0.052287,0.0061606000000000005,-0.25454,-0.32179,-0.14527,0.30441,0.037149,0.17978,-0.05486900000000001,-0.51402,-0.14206,-0.2245,0.051019999999999996,-0.025271000000000002,-0.1051,0.060534000000000004,0.13858,0.41268999999999995,0.35502,0.19309,0.24015999999999998,-0.3679,-0.09690599999999999,-0.16958,-0.51904,-0.17001,-0.39642,0.16734000000000002,-0.28944000000000003,-0.25614000000000003,0.050855000000000004,-0.065388,0.0401,0.17299,0.23740999999999998,-0.22651,0.28095,-0.10603,0.2395,-0.049039,0.20108,-0.40207,0.16314,0.28318000000000004,3,0
ability,-0.39326,0.39245,-0.23947,0.14063,-0.55884,0.046301,-0.34033,0.39366,-0.31486,2.3024,0.30407,0.10103,-0.045793,0.26478,0.10989000000000002,0.43588999999999994,-0.049332,1.5531,-0.57894,0.08136900000000001,0.12227,0.15567999999999999,-0.2728,-0.68088,0.017950999999999998,0.47931,0.3791,-0.11454,-0.024591,-0.6913199999999999,-0.23018000000000002,0.027257,-0.091584,0.18206,0.1562,-0.21955,0.62327,0.30901,0.013428,-0.49712,0.043298,-0.4739,-0.2442,0.032994,0.13860999999999998,-0.17377,0.095819,0.57327,-0.11158,0.39973000000000003,-0.0372,-0.45892,0.20529,-0.46908999999999995,-0.016244,0.36939,-0.30813,-0.045285,0.10439000000000001,-0.45283999999999996,0.3356,0.15539,0.22136999999999998,0.21478000000000003,0.44758000000000003,-0.052957000000000004,0.043024,-0.20622,0.47191000000000005,-0.029075,-0.13458,0.31389,-0.16355999999999998,-0.37979,-0.4679,-0.12611,-0.25394,-0.09776599999999999,-0.040326,0.23998000000000003,-0.06782300000000001,-0.30637,-0.13762,0.27999,-0.051664,0.017733000000000002,-0.79685,0.41481999999999997,0.042865,-0.29107,-0.32816999999999996,0.46605,-0.3669,0.42373,0.39169,-0.22376,0.11434000000000001,-0.12775999999999998,-0.40905,0.073055,0.016433,0.12284,0.052164999999999996,-0.018501,0.26693,-2.0861,0.34519,-0.15106,-0.0093296,-0.061627999999999995,0.35801,0.41176999999999997,0.12,-0.29677,0.20745,0.29936,0.3529,-0.24081999999999998,0.26774000000000003,0.019965,0.19985,-0.00080322,0.008360600000000001,-0.064203,0.08176,-0.36561,-0.57403,0.25722,-0.26659,0.21886999999999998,-0.031166000000000003,0.074227,-0.041872,0.16835,-0.11635999999999999,0.068082,0.33102,-0.089772,-0.11972000000000001,-0.083913,-0.64532,0.13397,0.04383,0.51599,0.089197,0.025958,0.79333,0.043455,0.23885,0.040048,0.13962,0.17800000000000002,0.12402,0.28115,0.088365,-0.00046318,-0.22876,0.071042,-0.08746,-0.5545100000000001,-0.056579,0.18974000000000002,-0.2248,0.0022021000000000002,0.26515,-0.11558,0.22429000000000002,-0.49618999999999996,0.050061,-0.16759000000000002,-0.15642999999999999,0.23849,0.43785,0.13609000000000002,0.63744,0.074416,-0.23628000000000002,-0.27024000000000004,0.11621,0.25056,0.12304000000000001,0.57817,-0.1764,0.23031999999999997,-0.056602,-0.17720999999999998,-0.25322,-0.062141999999999996,-0.32669000000000004,0.24191999999999997,0.20427,0.0086064,0.12495,0.17569,0.048711000000000004,0.29168,-0.32223,-0.06439600000000001,0.010954,0.63078,0.21989,-0.28692,0.15049,-0.15572,0.029469,0.54743,-0.18350999999999998,-0.13497,-0.07157899999999999,-0.31524,0.047251999999999995,-0.54494,-0.26332,0.30271,0.23835,0.12924000000000002,0.29603,-0.14157,-0.30453,0.21383000000000002,0.3164,-0.22228,-0.040248,-0.067298,0.057048,0.057763999999999996,0.29702,-0.17658,0.42756000000000005,0.16624,-0.26900999999999997,-0.27581,0.11510999999999999,0.46443999999999996,-0.10125,0.046419999999999996,0.04297,-0.055608000000000005,-0.064805,-0.11546,0.28426999999999997,0.11235999999999999,0.30236,-0.041645999999999996,0.30052,-0.75837,-0.4087,-0.24439,-0.55006,0.17736,0.019206,-0.17451,-0.7842100000000001,0.20288,-0.30424,0.20112,-0.07825900000000001,-0.12687,0.11814000000000001,-0.031093,0.07282899999999999,-0.013763,-0.018657,-0.13547,-0.022775,0.21893,-0.14624,0.089863,1.0935,0.18361,0.30418,0.30398000000000003,0.00084358,-0.05515,-0.14878,-0.17021,-0.45526000000000005,0.13643,0.10371,0.20281,-0.36715,0.29031999999999997,-0.0040143999999999996,0.09882300000000001,-0.045768,-0.22221,0.33403,-0.27312,0.59454,-0.12140999999999999,-0.50527,0.29723,-0.37871,0.26187,-0.046033,0.035266000000000006,-0.21566999999999997,-0.097472,0.34426999999999996,-0.21475999999999998,8,0
guess,-0.22257,0.35072,-0.44838,-0.18935,-0.093218,0.4256,-0.056380999999999994,-0.33826,0.29704,2.1413,-0.18938,-0.069606,0.36824,0.009198,-0.12115999999999999,-0.061332000000000005,-0.29117,0.43522,0.05151,-0.049197000000000005,0.11052999999999999,0.046669999999999996,0.11494000000000001,-0.039395,0.011633,-0.15320999999999999,-0.21395999999999998,-0.33325,0.41163,-0.18716,-0.2286,0.41677,0.20284000000000002,0.054178,-0.21203000000000002,0.27681,0.24606,0.38478,0.027089999999999996,-0.14762,-0.26677,-0.0023054000000000004,-0.1838,0.12335,0.36025999999999997,0.0060646,-0.2008,-0.33749,0.07237400000000001,-0.039293,0.0030953000000000005,0.15299000000000001,0.076262,0.017918,-0.064333,-0.13379000000000002,-0.15455,-0.31771,0.19887,0.036968,-0.4088,-0.37469,-0.040326,0.16442,-0.16777999999999998,-0.29299000000000003,-0.26759,-0.026882999999999997,0.22764,0.20181,0.28098,0.085631,0.27142,0.072938,0.22616999999999998,0.39388,0.12112,0.033547,-0.25297,0.46957,-0.18965,-0.1572,-0.10463,-0.10965,0.28383,-0.28308,0.5606300000000001,-0.76607,0.46003999999999995,-0.031901,-0.27393,-0.019528999999999998,-0.27163000000000004,0.27978000000000003,0.25365,-0.13053,0.037982,0.03373,-0.041279,0.48349,-0.21746999999999997,-0.12763,0.11905,-0.0019315,0.46411,-0.81857,0.047948000000000005,-0.40793,-0.56499,0.17792,0.0067361,-0.33658000000000005,0.023033,-0.083065,-0.091603,0.27045,0.068652,-0.4228,-0.044344999999999996,-0.16644,0.2123,-0.32679,-0.046945,-0.1643,0.47823999999999994,0.07467,-0.018071,-0.40741,-0.1107,-0.13633,-0.12075,0.25442,0.043410000000000004,0.18795,0.17457999999999999,-0.28675,0.09775199999999999,-0.32750999999999997,-0.22416999999999998,0.17576,-2.5607,0.25464000000000003,0.068602,0.14027,-0.22865,-0.1201,-0.5634399999999999,0.11692000000000001,-0.22849,-0.23308,-0.12005999999999999,-0.079919,-0.22566999999999998,-0.0085989,0.10522000000000001,-0.12795,0.14861,-0.27213000000000004,-0.024091,-0.058046,-0.26326,0.25401999999999997,-0.23281,-0.14964,-0.55758,-0.097604,0.11759000000000001,0.075429,0.19111,-0.038515,-0.17175,0.020947999999999998,-0.24295,-0.4615,-0.1996,0.07713300000000001,-0.21097,-0.11782999999999999,-0.051179,-0.20681999999999998,0.18211,-0.27507,-0.58287,-0.10717,0.13161,-0.09527000000000001,0.041727,-0.073371,0.11656,0.3066,0.17643,-0.014969,-0.48496000000000006,-0.21654,0.42496000000000006,-0.022857,0.1093,-0.34328000000000003,-0.0032364000000000004,0.13719,0.12212999999999999,-0.14941,-0.24452,-0.057109,0.046031,0.002438,0.19479000000000002,-0.10153,0.28135,0.20493000000000003,-0.33654,-0.18925,-0.090522,-0.28384000000000004,0.20600000000000002,0.065176,-0.27871,-0.06917899999999999,-0.4731,0.090542,0.29694,0.045525,0.12875,-0.074287,0.056856,0.050305,0.24441,0.23476,-0.0040379,-0.14518,-0.19437000000000001,0.13355,0.069162,0.09045800000000001,-0.059522000000000005,-0.035259,0.22685,-0.11985,0.013903,0.46993999999999997,0.0023169,-0.16564,0.065715,0.50283,-0.16957,-0.1238,0.22794,-0.11445,-0.12139000000000001,0.6920000000000001,0.11129000000000001,-0.17514000000000002,-0.15912,0.079083,-0.10797999999999999,-0.0037461999999999994,-0.22441999999999998,-0.11302000000000001,-0.005701100000000001,0.1023,0.17861,0.27265,-0.056865,0.084539,-0.032041,0.0071471,-0.094948,0.17626,0.50642,0.31175,-0.15908,0.085265,-0.21169000000000002,-0.25976,-0.28626999999999997,0.17179,0.024566,-0.3058,-0.28426999999999997,0.26288,-0.05955800000000001,-0.29096,0.11932999999999999,-0.28981,0.15883,-0.041137,-0.069379,-0.21561999999999998,-0.039932999999999996,0.20817,-0.11360999999999999,-0.070588,-0.27244,0.016638999999999998,0.21122,-0.016896,-0.45337,-0.12895,0.019918,0.04742,1,0
coffee,0.042917000000000004,-0.11072,0.16902999999999999,-0.24811999999999998,-0.12389000000000001,0.33066999999999996,-0.43863,0.00038768,0.15964,1.7578,-0.69101,0.0546,-0.57245,-0.6432399999999999,0.25547,-0.37733,-0.25314000000000003,1.6009,0.39232,0.22266999999999998,-0.47966000000000003,0.22025999999999998,-0.027226,-0.39537,0.64175,-0.61506,0.074236,-0.04217,0.074054,-0.47381,0.25277,0.053736,0.024805,-0.20965,-0.27779,0.38048000000000004,0.049054,0.25983,-0.15102000000000002,0.26883,0.019331,-0.0036277,-0.011863,-0.077513,-0.44597,0.34643,-0.4895,0.032593000000000004,-0.2888,-0.04333,-0.12525,-0.023403,-0.12218,0.7024199999999999,0.7449600000000001,-1.4427,-0.061541,-0.52764,-0.27476,-0.30916,-0.17373,-0.2566,0.29331999999999997,0.50066,-0.42591999999999997,-0.43972,0.47238,0.012586,-0.26406,0.21628000000000003,-0.16745,0.47928999999999994,0.8117300000000001,-0.13734000000000002,0.36,0.72067,-0.2608,0.18945,0.17547000000000001,0.018111000000000002,0.026612,0.18848,0.22407,-0.14204,-0.47953999999999997,0.058115,0.40074,1.2991,0.013975999999999999,0.07542,0.213,0.15411,-0.30798000000000003,-0.10144,-0.26396,-0.49531000000000003,0.17194,-0.51878,-0.41773000000000005,-0.23018000000000002,-0.37844,-0.2463,-0.081682,-0.13614,-0.15133,-0.7240000000000001,0.9593700000000001,-0.13963,0.50469,0.42348,0.27458,-0.043033,-0.31997,0.1141,0.034873,-0.27196,-0.2115,-0.082175,0.16523,0.3398,-0.27618000000000004,-0.046533,0.27208000000000004,-0.23281999999999997,0.18531,-0.70515,0.18938,0.22457,0.25229,0.39682,0.141,-0.46066,0.18028,0.5628,-0.32123,0.026496,0.21035,0.11632,-0.23665,-0.32634,-1.9952,0.15285,0.57405,-0.0093656,0.029002999999999998,-0.18304,-0.42915,0.031416,0.67681,-0.2769,0.452,0.2997,0.41312,0.45799999999999996,-0.067869,0.16458,0.26439,-0.5032399999999999,0.28286999999999995,0.47007,-0.30585,0.42033000000000004,-0.62617,-0.29961,0.048014999999999995,-0.5440699999999999,-0.30255,-0.15637,-0.25142,0.0712,0.11214,-0.065934,-0.049232,0.064027,-0.43637,-0.06879299999999999,0.028027,-0.5855199999999999,-0.074876,-0.60502,-0.12722,-1.0222,-0.28531,-0.42298,0.048243,0.39752,0.36155,0.67575,0.50272,-0.23918000000000003,-0.7295699999999999,-0.16371,-0.21854,-0.19196,-0.11141,0.046439999999999995,0.11662,0.22887,0.16813,-0.18572,0.28624,0.52655,-0.16827999999999999,-0.016652,-0.032739,0.067788,0.22755,0.32688,0.13652,-0.27161,-0.12506,0.29518,0.14497000000000002,0.044237,-0.26056999999999997,-0.32832,0.048308,-0.18044000000000002,-0.30748000000000003,0.39946,-0.66252,-0.17865,0.29099,0.31195,0.15306,-0.1291,0.067987,0.0078031,-0.32754,0.70034,-0.21333000000000002,-0.41029,0.055548,-0.40614,-0.24259,-0.30156,0.20834,-0.25208,0.25348000000000004,-0.063181,0.29005,0.028972,-0.40009,-0.57394,-0.075042,0.41218,-0.019859,-0.14198,-0.61245,0.24122,-0.008892299999999999,-0.8075100000000001,-0.097052,0.41698,-0.18972,0.71116,-0.3517,-0.057766,-0.091941,0.54068,-0.10178,0.31022,-0.15029,0.33607,-0.35679,0.22534,-0.18997999999999998,0.72206,-0.45038999999999996,0.48738000000000004,-0.76525,-0.048766000000000004,0.57712,-0.38095,-0.026507,0.15975999999999999,-0.32632,0.18717999999999999,0.6080800000000001,0.65185,0.03594,-0.14883,0.30604000000000003,-0.11359000000000001,-0.13582,0.09306299999999999,1.1536,0.36180999999999996,-0.6764399999999999,0.65993,0.17397,0.24333000000000002,0.51957,0.031329,-0.18692,0.14128,0.56712,-0.62527,-0.49951999999999996,0.55038,5,0
target,-0.34738,0.20137,-0.49965,0.32511,0.32164,-0.43143000000000004,-0.26681,0.57649,0.003479,1.8023,-0.45723,-0.14393,-0.26808000000000004,0.087349,0.31228,0.12240999999999999,0.16841,1.6906,-0.29267,-0.41066,0.048083999999999995,0.32643,-0.20176,-0.11048,0.013284,0.36880999999999997,-0.23076,0.062399,-0.30308,0.10187,-0.47671,-0.3527,0.20961,-0.035716000000000005,0.33762,-0.39305,-0.13030999999999998,0.16992000000000002,0.55694,-0.048448000000000005,0.071896,-0.12903,-0.2554,-0.23676,0.21629,-0.47388,0.37733,0.36489,-0.3666,0.38648000000000005,-0.047263,-0.26671,-0.41635,0.22021999999999997,0.19254000000000002,-0.67624,-0.6862699999999999,0.25034,0.27186,-0.26232,0.0024334,0.30929,-0.25905,-0.031524,0.42112,-0.14252,0.089697,-0.071852,-0.30330999999999997,-0.38865,0.34269,-0.049067,0.31077,0.0027873,-0.34467,-0.48288000000000003,-0.15334,-0.45318,-0.16094,-0.22526999999999997,-0.59925,-0.50947,0.18637,-0.026432,0.5983,0.53466,0.0043862,-0.11909000000000002,0.24333000000000002,-0.055533000000000006,0.36930999999999997,0.70977,0.24695,-0.25792,-0.092113,-0.32653000000000004,0.19407,0.2351,0.23058,0.27239,-0.23381,-0.11295999999999999,0.25626,-0.17125,0.28626,-1.6463,0.079764,-0.1388,-0.41223000000000004,0.3798,0.26375,-0.42977,-0.14787,0.41345,0.13136,0.2031,0.29968,0.005675,-0.1123,0.1663,0.1895,-0.09890499999999999,0.19545,-0.31085999999999997,-0.27136,0.078962,-0.22121999999999997,-0.41706000000000004,-0.9312,0.1152,-0.21305,0.25022,-0.13275,-0.15492,0.0038561,-0.4437,0.1161,-0.0052354,-0.0066913,0.18112,-0.46958,-0.21183000000000002,-0.12254000000000001,-0.14027,-0.41684,0.064089,0.6723100000000001,-0.33002,0.041589,0.36494,0.21709,-0.047711,-0.22393000000000002,-0.040908,-0.32908000000000004,-0.01401,-0.25765,0.6756800000000001,-0.625,-0.4792,-0.009834,-0.070732,-0.23690999999999998,0.17754,-0.1183,0.041997,0.44896,-0.082038,0.30751,0.25699,0.79713,-0.15705999999999998,-0.61122,-0.36589,0.34955,-0.14147,0.1265,-0.086889,0.40368000000000004,0.020664,-0.05604,-0.035251,0.053614999999999996,0.12879000000000002,-0.37605,0.19722,0.05631,0.41439,-0.16057000000000002,-0.038701,0.20601999999999998,-0.41896000000000005,-0.10005,0.30869,0.47246000000000005,-0.39337,-0.052190999999999994,-0.66969,0.29638000000000003,-0.30239,0.49955,-0.37572,0.17274,0.5135,0.35949000000000003,0.46043,-0.047165,0.0024031999999999994,-0.38342,-0.13133,0.49527,-0.44986000000000004,-0.47396000000000005,0.061675,0.31338,-0.40991000000000005,-0.014776,0.099226,-0.54228,-0.16441,0.51602,-0.077158,-0.52299,0.1051,0.12042,0.21846,0.30758,-0.083425,0.2931,-0.010765,-0.11674000000000001,-0.062002,0.46547,-0.33597,-0.051556,-0.42158999999999996,0.064263,0.11187000000000001,0.10525,0.29352,0.18535,0.27234,0.087448,0.091426,0.078546,-0.21013,0.31582,0.23915999999999998,0.14468,0.2398,-0.43305,-0.024266,-0.32361999999999996,-0.024728,0.5705399999999999,0.39259,-0.08064,-0.016214,-0.35598,-0.38703000000000004,-0.59382,0.31690999999999997,0.47373000000000004,-0.11283,-0.065558,0.12167,0.38061,0.087533,0.9536100000000001,0.13124,0.044455,-0.082099,0.090879,-0.073296,0.29412,-0.13316,0.15235,0.0079699,-0.011644,0.47488,-0.16272999999999999,0.17102,-0.041364,-0.13718,0.4797,-0.31027,0.018274000000000002,-0.17857,0.31645,0.25477,0.018607,0.16614,0.1333,0.34419,-0.1248,-0.13568,-1.2315,-0.76789,-0.42136,0.10962000000000001,11,0
aware,0.15281,-0.10145,-0.39469,0.34231999999999996,-0.046968,0.25264000000000003,0.15078,-0.38016,-0.027156,2.8357,-0.095485,0.028461,-0.023895,-0.061564,-0.18675999999999998,-0.09648999999999999,-0.26849,0.58605,-0.32827,0.18273,-0.032563999999999996,-0.2496,0.0081902,-0.25983,-0.094292,-0.10912999999999999,0.12503,-0.30645,0.24619000000000002,-0.40481999999999996,-0.31785,-0.11709000000000001,-0.14127,-0.14245,-0.028185,-0.014961000000000002,0.051584000000000005,0.34743,-0.30013,-0.28076,0.1193,-0.47012,0.091269,0.35766,-0.082788,0.057461,0.049201,-0.10937000000000001,-0.010329999999999999,0.04888,-0.31626,-0.29402,-0.11168,0.042419,0.57171,-0.1031,-0.41194,-0.13616,-0.043635,0.11298,0.042263,-0.52435,0.09172999999999999,-0.046236,-0.08605499999999999,-0.021943999999999998,0.10589000000000001,-0.017783,-0.046529,0.19075,0.047539,-0.19907,0.62741,-0.27145,0.29220999999999997,-0.0494,0.18758,-0.26605999999999996,-0.30480999999999997,0.51245,-0.049517,0.082897,-0.42933999999999994,-0.19689,0.18275,-0.60612,-0.31911,-0.044375,0.34849,-0.18987,0.01353,-0.09134500000000001,-0.30449,0.0015913,0.018685,-0.0057959,0.19027,-0.33123,0.014622999999999999,0.17006,-0.24295999999999998,0.02374,-0.020906,0.089357,0.48503,-1.4347,-0.33651,-0.23001,-0.17925,0.15679,-0.06929600000000001,0.29529,0.07858,-0.16059,0.00078093,-0.25273,-0.040351,0.009217200000000002,-0.076342,-0.14837,0.33231,-0.17685,-0.17831,-0.2536,0.51695,-0.0912,0.15242999999999998,-0.42063999999999996,-0.012915000000000001,-0.3383,0.051702,-0.11774000000000001,-0.38491,-0.15917,0.2463,-0.077049,-0.10680999999999999,-0.087136,0.32702,-0.0041522,-0.6147,0.12229000000000001,-0.055167999999999995,0.44278,-0.079295,-0.24306,-0.14495999999999998,0.13557,-0.40099,0.096739,-0.14790999999999999,0.085203,0.04224,-0.033269,0.11242,0.29794,-0.16982,0.074161,-0.10195,0.12115999999999999,-0.55615,0.074866,-0.08491,0.076014,0.1001,0.16805,0.14445999999999998,-0.17431,-0.27931999999999996,-0.036592,0.06868400000000001,0.045099,0.060325,-0.1572,-0.07525,0.022085,-0.022991,0.19995,0.10833,0.30624,0.23325,0.042038,0.39421999999999996,-0.1492,-0.13996,0.11744,0.053581,-0.060911,-0.088675,0.090392,-0.12115,0.12354000000000001,-0.088561,-0.029873,0.017438,-0.31217,0.15757000000000002,-0.00040944,0.1216,0.42968999999999996,0.24908000000000002,-0.024064,-0.20596,-0.080819,-0.27066999999999997,0.20395,-0.10072,-0.1317,-0.12708,-0.15787,0.38752,-0.18093,-0.10774,0.22011999999999998,-0.10109,0.028741000000000003,-0.20863,-0.0061039,-0.77745,-0.39386,0.52371,0.24373000000000003,0.030175,0.0061503,0.037573,-0.11083,-0.10087,-0.26026,-0.25113,-0.3747,0.011066,0.055078999999999996,0.053235000000000005,0.22933,0.16209,0.10568,-0.23651,-0.26016999999999996,-0.12185,0.19544,0.14841,-0.027926,0.23344,-0.19777999999999998,-0.030784,0.14334000000000002,0.24829,0.16891,0.10608,0.17419,0.067012,-0.13762,0.15562,0.033218,-0.31182,-0.22491999999999998,-0.40032,-0.030976,0.31694,0.46143,0.19196,0.1646,0.037119,-0.1252,-0.0005739,-0.046352,-0.1466,0.15241,0.59554,0.041697000000000005,0.18015,0.24334,-0.2453,-0.25543000000000005,0.098741,-0.09633,-0.13366,0.31931,-0.19917,0.056846,-0.043276999999999996,0.20404,0.31775,-0.06051,0.18437,0.08682899999999999,0.13844,-0.090266,0.26796,0.039129000000000004,-0.36278,0.15049,-0.34206,0.05701900000000001,0.49404,0.25018,-0.17532999999999999,-0.094734,0.29225,0.040167,11,0
determine,0.008985700000000001,0.41503,-0.35475,0.24298000000000003,-0.38163,-0.13472,-0.19065,0.15625,0.273,2.4271,-0.53684,0.050794,0.08728999999999999,0.29614,0.20364000000000002,-0.25537,-0.18866,2.0726,-0.35097,-0.25911999999999996,0.25709,-0.26918000000000003,-0.38822,-0.04832,0.009151399999999999,0.34276,-0.054643,0.013053,-0.013794999999999998,-0.13096,0.026712,-0.09164299999999999,0.56018,0.14909,-0.1494,0.013472999999999999,0.21491999999999997,0.25354,-0.46219,-0.42851999999999996,-0.40594,0.047333,0.086867,-0.2457,-0.12359,-0.54364,-0.13878,0.0085979,-0.39033,-0.12215,-0.072118,-0.21658000000000002,-0.017496,-0.094303,0.080576,0.083151,0.029826,-0.44433999999999996,0.15889,0.10116,0.41538,0.08417999999999999,0.024312,0.49966000000000005,0.037920999999999996,0.261,0.19637000000000002,0.0050424,0.13364,-0.29655,0.17792,0.35285,0.44225,-0.29696999999999996,0.089089,-0.050871,-0.17656,-0.30831,0.023185,-0.26106,0.022375,-0.049423,-0.2016,0.041892,0.38927,0.037077,-0.22493000000000002,0.22585,0.12702,0.20027999999999999,-0.14493,0.049354,-0.36766,0.21225,0.048333,-0.15939,-0.35822,-0.19269,-0.14592,0.45811,0.14340999999999998,0.2104,0.6320899999999999,0.30413,0.16085,-2.1089,-0.121,-0.22214,-0.093293,0.16025,0.1418,0.022262999999999998,0.22801999999999997,0.24686999999999998,0.40437,0.091123,-0.092714,-0.088541,-0.1015,-0.10450999999999999,0.13348,-0.11819,-0.016468,0.19924,0.036858,-0.036277,-0.048208999999999995,0.043654000000000005,-0.32304,0.07525499999999999,0.14529,0.44299999999999995,-0.12247999999999999,-0.15736,0.035883,0.037843,0.2715,0.05395,0.45802,0.10664000000000001,0.26927,0.041693,-0.46391000000000004,0.039298,0.08985599999999999,-0.1274,0.15407,-0.060020000000000004,0.11765999999999999,-0.057008,0.049285,-0.12609,-0.5009899999999999,-0.12875999999999999,-0.12579,0.013562000000000001,0.056648000000000004,0.1426,-0.26811,-0.034255,-0.19255,0.11664000000000001,-0.20828000000000002,-0.26883,-0.067797,0.05826799999999999,-0.0045281,0.098275,0.28302,0.5052,0.012922,-0.20101,0.19387000000000001,-0.31522,-0.18073,0.25992,0.35583000000000004,-0.0023382,-0.030775,0.27335,0.093432,-0.02459,-0.070836,0.30992,-0.025149,0.50136,-0.35753,0.19579000000000002,-0.34407,0.14299,0.031686,-0.024997,-0.13357,-0.065713,0.21236,0.48058999999999996,-0.3156,0.097616,0.018519,0.33024000000000003,0.061220000000000004,-0.036754,-0.07700599999999999,0.49265,-0.48023999999999994,-0.09550700000000001,0.09628400000000001,0.46071999999999996,0.37759000000000004,0.39191,0.25744,-0.14582,-0.63441,0.0858,-0.25836,-0.19664,-0.28189000000000003,0.22244,-0.26905,0.13848,0.59891,-0.052147000000000006,0.013411000000000001,-0.46252,0.053684,0.48506000000000005,0.023578,-0.09039,0.19927999999999998,-0.061777,-0.079567,0.055989,0.083913,0.22376999999999997,-0.43512,-0.10860999999999998,-0.063538,-0.10895,-0.19560999999999998,0.0020998,0.11775,-0.16591,0.5300600000000001,-0.1548,-0.19548,-0.32777,0.30291999999999997,-0.1494,-0.16865,0.12379000000000001,-0.18047,-0.04385,-0.14532,-0.19734000000000002,-0.2509,0.28753,0.041144,-0.024612000000000002,0.55961,0.075507,-0.14712999999999998,0.07029500000000001,-0.26461,-0.28586,0.10589000000000001,0.1514,-0.16864,0.46588,0.91407,0.51293,0.40594,0.29991999999999996,0.28545,-0.0041478,0.043815,-0.16573,-0.26813000000000003,0.61568,-0.41016,0.098149,-0.10425999999999999,0.3956,-0.054155999999999996,-0.32569000000000004,-0.032327,0.021059,-0.39858000000000005,0.1873,0.31740999999999997,-0.064484,-0.0066477,0.21681,-0.19954000000000002,-0.2596,0.09531,-0.63167,-0.23828000000000002,-0.26034,0.60011,-0.18141,10,0
square,0.92512,0.47927,-0.12100999999999999,-0.30261,0.22188000000000002,-0.33869,-0.33285,0.51515,-0.18949000000000002,1.3454,-0.19421,-0.26024,0.1216,-0.25842,-0.28165,0.05155,0.07031699999999999,2.2526,-0.017971,-0.21072,-0.19172,0.11289,0.28060999999999997,0.28658,0.33602,-0.9291200000000001,-0.32486,0.8363,-0.6229899999999999,0.27386,0.18800999999999998,0.42038000000000003,-0.49022,-0.19443,0.14127,-0.42041000000000006,-0.29782,-0.2634,-0.29732,-0.21736999999999998,0.076312,0.38973,0.52365,-0.69701,0.22816,-0.50465,-0.30201,-0.36998000000000003,-0.88979,-0.084371,-0.17843,0.19371,0.30874,-0.074026,0.45483999999999997,-0.35245,0.41923,0.45748,0.27952,0.48125,-0.050252,-0.043526999999999996,-0.28359,0.55897,-0.11764000000000001,-0.26118,-0.40984,0.13001,-0.06700199999999999,0.32606999999999997,-0.081607,-0.1213,0.24741,-0.1976,0.39551,-0.18095,0.12516,0.12796,0.33092,-0.066248,-0.33431,0.030233999999999997,0.9029799999999999,0.31777,-0.43523,0.6934600000000001,0.56605,0.6764600000000001,0.39611999999999997,-0.92174,-0.21204,0.16541,0.0033174999999999997,0.15215,0.41600000000000004,0.21327,-0.67509,0.47152,0.022286,-0.10197,0.21116999999999997,0.023696000000000002,-0.41328000000000004,0.12968,-0.047593,-0.7967,0.30117,0.061201,-0.23142,0.5182899999999999,0.32816,-0.54976,-0.013493999999999999,-0.019705,0.36474,0.40288,-0.47401000000000004,-0.036825,0.07632699999999999,-0.010994,-0.13151,-0.06614,0.13103,-0.054362,-0.092757,-0.06965,0.065956,-0.056474,0.12522,-0.07203,-0.056294000000000004,0.51723,0.41025,0.31343000000000004,-0.12134,-0.16998,0.60741,0.1868,0.16697,0.011869,-1.0919,-0.025237,-0.098764,-0.0026299,-0.043597000000000004,-0.22103000000000003,-0.12358,-0.44098999999999994,0.39011,-0.054564999999999995,0.35477,0.043025,0.31290999999999997,0.23342,-0.72623,0.049718,-0.16122,0.097049,-0.11519000000000001,-0.045602,0.30822,-0.10042000000000001,-0.62063,0.026073000000000002,0.31686,-0.43085,-0.16745,0.27984000000000003,0.046957,0.35585,0.0097046,-0.11467000000000001,-0.94386,-0.49478,-0.62546,-0.26686,-0.022541,0.23742,-0.082012,-0.48478999999999994,0.28981999999999997,0.10096000000000001,0.39705999999999997,-0.37222,-0.26264,-0.14205,-0.1387,-0.092989,0.45196000000000003,0.66496,-0.5342,0.20933000000000002,-0.08493400000000001,-0.012118,0.067986,0.3836,0.0021136999999999996,-0.48003,-0.6036199999999999,0.16332,0.11894,-0.74045,0.044932,0.51532,0.5018100000000001,0.32515,-0.056228999999999994,-0.59026,-0.15342999999999998,-0.28715,0.0032463,-0.040656,0.28676999999999997,-0.55655,0.016756999999999998,0.56221,-0.53537,-0.078291,0.24233000000000002,0.4115,-0.043161,0.6897,0.13971,-0.47772,-0.06850099999999999,0.12639,-0.27305,0.23706999999999998,-0.10095,-0.0054176,0.17628,0.44201,0.15395999999999999,-0.26714,0.4553,0.014786,0.36925,-0.15165,0.51426,0.016064,0.44451999999999997,-0.068034,-0.11731,0.37315,-0.093538,-0.26955,0.53166,0.15869,0.19864,-0.19758,-0.12475,0.64045,0.2704,-0.17331,0.21813000000000002,0.81592,0.39879000000000003,0.31877,0.027533,-0.08628999999999999,0.021908,-0.19089,-0.77351,-0.11333,-0.39029,-0.073081,-0.2398,-0.18284,-0.98961,0.031691000000000004,-0.53857,-0.36441,0.090179,-0.04075,-0.52896,-0.26115,0.014862,0.10926,-0.47043999999999997,-0.41707,0.51685,0.74335,-0.10588,0.14395,-0.3366,-0.13677999999999998,-0.41923,0.094599,-0.48313,0.65292,0.29899000000000003,0.26421,0.32759,0.12157000000000001,-0.3889,0.35385,-0.21963000000000002,0.34236,-0.05304400000000001,0.16827999999999999,10,0
interface,0.35995,-0.034533,0.046068,0.47008999999999995,-0.25266,0.16088,0.423,-0.56753,-0.009789,-0.20338,0.49191,-0.0077804,0.13052,0.038474,-0.23621,-0.25296,-0.31639,3.3699,-0.040229,-0.11117,-0.4655,0.14518,-0.18742999999999999,-0.10617,0.7155100000000001,0.020365,0.10878,-0.21378000000000003,-0.008268799999999998,0.053724,-0.63607,-0.19825,0.21068,-0.023774,-0.43928999999999996,-0.24700999999999998,0.42355,0.19397999999999999,-0.20655,-0.42448,0.19379000000000002,-0.22426,-0.31187,-0.028863999999999997,-0.45219,-0.16208,0.18170999999999998,0.43765,-0.50513,0.28685,-0.21509,0.30484,-0.0094836,-0.21479,-0.39673,-0.049359,-0.6178899999999999,0.053935000000000004,-0.10273,-0.27631,0.5724,0.61043,-0.25389,0.39311999999999997,-0.11055999999999999,0.011188,-0.15278,0.47042,0.16776,0.032228,0.5697,-0.065227,0.014790000000000001,-0.56672,-0.26589,-0.048489,0.38154,-0.26486,-0.21255,0.8453299999999999,0.36495,-0.23181,0.1218,-0.24159,0.14336,0.2067,-0.3332,0.31183,0.20635,0.046784,-0.37151999999999996,0.029986000000000002,-0.4947,0.16355999999999998,0.54713,-0.46436000000000005,0.15077000000000002,0.043094,0.10599000000000001,0.27139,-0.084415,-0.28352,-0.39071,-0.24764,0.28776,-1.7303,-0.23859,0.53066,0.48136999999999996,-0.35204,-0.61719,-0.01865,0.5997,0.17287,0.047841,-0.10825,0.29836999999999997,-0.45518000000000003,-0.28031,0.43728,-0.2191,-0.8800899999999999,-0.23865999999999998,-0.16084,-0.17384000000000002,-0.43363999999999997,0.62673,-0.10329,0.69458,-0.41318,-0.38886,0.32172,-0.46163000000000004,-0.17355,-0.3495,0.025245,-0.32654,0.30111,-0.054077999999999994,-0.11470999999999999,-0.30007,0.19932,-0.18341,0.10902,0.15279,-0.36591999999999997,-0.34600000000000003,-0.37225,-0.52537,-0.064888,0.18808,0.050079000000000005,-0.25114000000000003,0.44125,0.63235,0.035033,0.059434,0.44778999999999997,0.32815,-0.307,0.046262,-0.24964,0.30155,-0.13233,-0.37821,-0.29318,0.52472,0.10839000000000001,0.11029000000000001,-0.25543000000000005,0.2385,0.38406,0.06264,-0.099415,0.30719,0.14684,0.12307,0.19253,-0.68534,-0.07772000000000001,0.041201,-0.62007,-0.22044,0.10352,-0.066927,0.16249,-0.24554,0.26953,-0.29447,-0.12827,0.27254,0.29286,0.17284000000000002,1.124,0.40458,-0.065526,-0.31339,-0.51961,-0.4512,0.42718,-0.10607,-0.16403,-0.07241399999999999,-0.15345999999999999,0.16484000000000001,0.23854,-0.7043699999999999,0.33354,-0.3944,-0.19876,-0.38378,-0.63161,-0.49113999999999997,-0.47247,-0.085241,-0.32746,-0.15511,0.10357000000000001,-0.52993,-0.15747,0.10925,0.38816,-0.34249,0.35691999999999996,-0.05944,-0.14372000000000001,0.8701200000000001,0.08417899999999999,0.158,0.3744,-0.66877,-0.033675,0.27042,-0.072199,0.10893,0.20876999999999998,-0.11942,-0.23295,0.6106600000000001,0.6101800000000001,0.63986,0.020187,0.43635,0.085103,0.16893,-0.62866,-0.16843,-0.20118,-0.07144199999999999,0.25313,0.1284,-0.26771,0.18002,-0.058438,-0.060941999999999996,-0.6985100000000001,0.19099000000000002,-0.26844,0.45093,-0.42439,0.34475,-0.30584,0.051238,-0.30398000000000003,-0.076681,-0.58806,0.27383,-0.9074,1.6549,0.1334,-0.33008000000000004,0.3329,-0.074849,0.17694000000000001,-0.19877999999999998,0.14169,0.46606000000000003,-0.47176999999999997,0.19464,-0.35329,0.46271,0.070367,0.33493,-0.025639,-0.075781,-1.2092,0.052128999999999995,0.015403,0.085399,-0.6603399999999999,-0.49843999999999994,0.43095,-0.2574,0.65501,-0.24218,-0.37021,0.6009899999999999,-0.18685,-0.041507999999999996,0.31977,8,0
smart,-0.18247,0.029154000000000003,-0.13879,-0.10722999999999999,-0.15963,0.46481000000000006,0.18832000000000002,-0.51627,0.30001,1.4887,-0.27825,0.1928,-0.31885,-0.1714,-0.38648000000000005,-0.075252,-0.31042,1.54,0.09891,-0.48267,-0.32378,0.22259,0.20646,-0.59054,-0.078811,0.014044999999999998,-0.24420999999999998,-0.36474,0.22061,-0.19457,-0.27221999999999996,-0.16568,0.22138000000000002,-0.014408,0.46166,-0.39157,0.38571,0.031323000000000004,-0.36888000000000004,-0.27169,-0.4011,0.15702,-0.051465,-0.28599,-0.061914,-0.28581,-0.29397,-0.30734,0.027104000000000003,-0.25044,0.033701,0.17951,-0.32611,-0.5075,0.27274,0.22161999999999998,-0.10597999999999999,0.23586,-0.11644000000000002,-0.024666,0.20699,-0.35322,0.11785999999999999,-0.42946000000000006,0.46484,-0.25945,-0.25553000000000003,0.41211000000000003,0.0094777,-0.056986,0.020012000000000002,0.06794700000000001,-0.10502,-0.21161,-0.30765,-0.40559,0.3507,-0.24461,0.26475,0.5904,0.014309,0.013181,0.42636,0.4035,-0.1097,0.16902999999999999,-0.11572,0.29193,0.33512,-0.40559,-0.16571,0.5062399999999999,-0.21871999999999997,0.52555,-0.20571,-0.68156,0.14435,-0.28701,-0.038416000000000006,0.09652999999999999,0.20836999999999997,-0.24800999999999998,-0.34631,0.052615999999999996,0.15043,-1.2738,-0.21081,-0.24347,0.071599,0.39632,-0.060663999999999996,-0.10647000000000001,0.44103000000000003,-0.31126,-0.22739,0.16484000000000001,-0.11762,0.0089276,-0.5017199999999999,0.06983400000000001,0.2174,-0.51351,-0.58334,-0.26873,0.22465,0.25079,0.23289,-0.22432,0.24622,-0.11696,-0.19627999999999998,0.26899999999999996,-0.21423000000000003,-0.15020999999999998,-0.1621,-0.43246,0.17944000000000002,-0.6743100000000001,-0.51566,0.13781,-1.7245,-0.17654,0.51418,0.26771,-0.41236000000000006,-0.31775,0.43561000000000005,-0.079471,0.10188,0.12958,0.25864000000000004,-0.053229,0.19111,0.30912,0.18374000000000001,0.33466999999999997,-0.14072,-0.20711999999999997,-0.043354000000000004,-0.56242,-0.080774,-0.12558,-0.033562,0.092127,-0.054241,-0.16772,0.19429000000000002,-0.28048,-0.12077,-0.22930999999999999,-0.046368,0.30395,-0.21433000000000002,0.16466,0.28549,-0.64215,-0.19748,0.37625,-0.15803,0.5791,-0.010583,-0.39188,-0.28295,-0.16179000000000002,-0.1992,0.27745,0.15671,0.15728,0.19507,-0.32621,0.40066,0.10384000000000002,-0.11582,0.20963,-0.36105,-0.11229000000000001,-0.066174,0.021158,0.47905,0.46753999999999996,-0.041507999999999996,-0.18961,-0.051678999999999996,0.0060645000000000004,0.14803,0.36691,-0.26759,0.48344,-0.095474,-0.12986,-0.68963,-0.26419000000000004,-0.4858,-0.42344,0.50665,0.19867,-0.15799000000000002,0.1651,-0.55598,-0.38403000000000004,0.33011999999999997,-0.06005800000000001,0.066762,0.26145999999999997,0.17535,-0.39547,0.1417,0.10134,-0.0088542,-0.27616999999999997,0.11267,0.040695999999999996,-0.23446999999999998,-0.25648000000000004,-0.48408,-0.34548,0.5131399999999999,-0.15646,0.45626000000000005,0.37358,0.5244,-0.44173,-0.33031,0.13321,0.14019,-0.011389,0.0018059999999999999,-0.27152,-0.27191,0.38055,-0.2031,0.19935999999999998,-0.42458999999999997,0.31072,-0.12954000000000002,-0.58065,-0.11692000000000001,0.049094,-0.54085,-0.24294000000000002,-0.095726,0.21425,-0.065137,-0.31633,-0.087338,-0.35949000000000003,-0.35396,0.043684,0.65108,0.21675999999999998,-0.53005,0.41947,0.062321,0.13005,-0.11965999999999999,0.11369000000000001,0.011951,-0.03953,0.12868,-0.19227,0.12673,0.49182,0.028872000000000002,0.5118199999999999,-0.31965,0.0052832999999999995,0.24716999999999997,-0.19246,-0.30479,0.645,-0.7518100000000001,-0.15364,-0.14786,0.046446,0.37947,0.17334000000000002,0.41463999999999995,0.15208,-0.2581,0.14384,7,0
express,-0.084007,-0.21241999999999997,-0.466,-0.1374,0.5010399999999999,0.70895,0.044979000000000005,0.27088,0.15908,1.9974,0.15244000000000002,-0.2096,-0.24977,-0.06379299999999999,-0.071337,0.4337,-0.45528,1.5171,-0.033998,0.20720999999999998,-0.20931,-0.14868,0.14699,-0.098139,0.007462000000000001,0.23368000000000003,-0.08869500000000001,0.054067,0.2247,0.10137,-0.080169,0.28788,-0.5858399999999999,0.25554,-0.5092,0.2713,-0.050329,-0.34912,-0.6816300000000001,0.27868000000000004,-0.22908,-0.57463,0.026792000000000003,0.45166999999999996,0.36378,-0.043048,0.11664000000000001,-0.13005,-0.36424,0.4705,-0.47353,-0.15746,0.065787,-0.32656999999999997,0.8844700000000001,0.40748,-0.50334,0.42882,-0.29571,-0.18385,0.25906,0.17502,0.17496,-0.22789,-0.31218,-0.09575499999999999,0.17334000000000002,-0.08721,-0.021891,0.17928,-0.0087844,0.42599,-0.30095,-0.27039,0.31416,0.12485,0.065721,-0.11627,-0.15464,0.44919,-0.11285999999999999,-0.12522,-0.099493,-0.03136,0.063283,-0.77282,0.13799,0.25708000000000003,0.20794,-0.65325,-0.80575,0.36388000000000004,-0.39128,-0.29185,-0.040323000000000005,0.5829,-0.43236,0.11198,-0.054113,-0.45738999999999996,0.16505,0.14868,0.12995,-0.49978999999999996,0.35331,-1.4186,0.34942,0.41588,0.010803,0.30981,0.065773,0.11728,0.38491,-0.25699,-0.42523999999999995,-0.46893,-0.0026209,-0.071072,0.25373,0.15327000000000002,0.7504,0.062409000000000006,0.17777,0.62708,-0.33469,0.21305,0.18162,0.09664099999999999,-0.46656000000000003,-0.38483,0.26533,-0.33026,-0.7740100000000001,-0.25258,-0.11896,0.27698,0.13109,-0.14518,-0.0083554,-0.054342999999999995,-0.84624,-0.53076,-0.050894999999999996,-0.16414,0.3791,0.59006,-0.46993999999999997,-0.15211,-0.40437,-0.033438,0.28493,0.29579,0.21731999999999999,-0.0043746,0.19321,-0.75998,-0.20362,-0.53489,-0.39375,0.28874,-0.061621,0.15505,-0.029811,-0.239,-0.14369,-0.065589,0.14037,-0.17933,-0.29755,0.050192,-0.037282,-0.18108,0.24370999999999998,-0.36464,0.7024,-0.049281,-0.098508,0.13235,-0.16554000000000002,-0.089914,-0.31066,0.52367,0.15850999999999998,-0.0047473,0.69366,0.0014444,-0.33893,-0.09422799999999999,0.18938,0.28,0.33079000000000003,-0.23948000000000003,0.17757,-0.17786,0.60797,-0.17753,-0.12855,0.052824,0.54435,0.13724,0.31321,-0.10765,-0.0043048999999999995,-0.20683,0.37696999999999997,0.41155,-0.037623000000000004,0.13557,0.12426,0.2795,0.35846999999999996,0.098872,-0.077914,0.61619,0.35261,0.37787,0.034946,-0.11632,-0.31046999999999997,0.36175,0.12375,-0.53358,0.41522,0.44213,-0.46903,-0.17274,0.22027,-0.082649,-0.23023000000000002,0.026160000000000003,-0.4187,0.28534,0.068236,0.41791999999999996,-0.5513100000000001,-0.06661900000000001,-0.07157999999999999,0.14027,-0.16622,0.3888,0.58127,0.25803000000000004,0.71959,-0.17983,0.23583,-0.39688,-0.32550999999999997,-0.22507,-0.45971000000000006,-0.7890199999999999,0.26738,0.46156,-0.28818,-0.28181999999999996,-0.12622,0.22083000000000003,-0.039746,-0.14975,0.025023,-0.038771,-0.07269,0.17284000000000002,-0.14340999999999998,-0.49391,-0.39016999999999996,0.07725499999999999,0.098715,0.51443,0.27760999999999997,0.23542,-0.36409,0.58627,-0.098518,0.70854,0.52955,-0.089036,0.36759000000000003,-0.28778000000000004,0.36016,0.061797000000000005,0.052099,0.17928,0.29653,0.48097,-0.2983,0.62197,0.29608,0.014336000000000002,0.36995,-0.20376,0.097278,-0.11681,0.2129,0.22634,0.6360100000000001,-0.28431,-0.17931,-0.14604,-0.18488,0.8370000000000001,1,0
orange,-0.051721,0.16876,0.013766,-0.1034,0.29263,-0.09374500000000001,-0.44418,0.041986,0.11688,0.67404,-0.40768000000000004,-0.21064000000000002,-0.43588999999999994,-0.10297,-0.02364,-0.2259,0.38732,1.8853,0.041372000000000006,-1.0139,0.29215,-0.09638200000000001,0.016418000000000002,0.29468,-0.17728,-0.12368,-0.29116,-0.11582999999999999,0.33209,-0.47623999999999994,0.17243,0.009505,0.17115999999999998,-0.033324,-0.33844,-0.098518,0.24552,0.10655,-0.42546999999999996,0.09788200000000001,0.31685,0.10776,0.012853999999999999,0.097887,0.6002,0.13338,-0.055129,0.12884,0.43059,-0.1677,-0.23501,-0.33757,-0.06589400000000001,-0.23489000000000002,0.52008,-0.63752,-0.15288,0.43756999999999996,0.055196,-0.32536,-0.46643,-0.55488,0.35038,-0.054021000000000007,-0.009230799999999999,-0.012278,-0.38777,-0.14594000000000001,-0.41341000000000006,0.46939,-0.2696,0.30985999999999997,-0.28617,-0.03443,-0.17823,0.065375,0.09146599999999999,-0.20756,0.034687,-0.35996,-0.03286,0.17002,-0.023232,0.5373100000000001,0.23715,-0.26038,1.3178,1.3553,-0.31672,-0.23779,0.21241999999999997,0.32861999999999997,0.97164,-0.15567999999999999,-0.16837,0.11126,-0.09231,0.1651,-0.14461,-0.42946999999999996,0.43046,-0.05155800000000001,0.35755,-0.41441000000000006,-0.49482,-0.6228,-0.26275,0.020123,0.39254,0.29191,-0.92324,-0.28836,-0.27636,0.17548,0.30373,0.25498000000000004,0.25563,-0.28888,0.078532,0.23296999999999998,-0.15114,0.19039,-0.32837,-0.024083,-0.17582,0.19482,0.48245,-0.021293,0.045685,-0.1832,-0.51579,-0.1981,-0.19951,-0.13417,0.37851999999999997,-0.2599,-0.30398000000000003,-0.085142,-0.15954000000000002,0.029599,-2.4453,0.8985,0.42715,0.39871,0.07823300000000001,0.20451,-0.12394000000000001,0.3612,0.21603000000000003,-0.43108,0.47089,0.12489000000000001,0.20688,0.016103,-0.7434,-0.27332,-0.68056,0.18817,-0.28874,0.15829000000000001,-0.069922,0.18386,0.43059,-0.14572000000000002,0.23596999999999999,-0.28683000000000003,-0.59444,-0.1397,0.00025188,0.21097,0.071425,0.1827,-0.20033,-0.10820999999999999,-0.37003,-0.033343,-0.0033323999999999997,-0.23187,0.25019,-0.34318000000000004,-0.32071,-0.23508,-0.42878999999999995,-0.44836000000000004,0.047667,-0.063889,-0.57071,-0.55,-0.46225,0.010329000000000001,-0.037935,0.09498999999999999,0.036661,-0.20182,0.074529,0.28618000000000005,0.12125,0.22819,-0.3455,0.11429,-0.30685999999999997,0.14972,-0.25942,0.15817,-0.16802,-0.020565,0.6527,0.11285,-0.03372,0.41591000000000006,0.24355,0.7226600000000001,0.44943,-0.035524,-0.050533999999999996,0.24098000000000003,-0.39704,-0.34834,0.045767,0.0088841,0.03874,-0.099938,0.16397,0.3722,-0.030487,-0.031905,0.49465,0.03743,-0.27111,0.07471699999999999,-0.33365,0.19147,-0.047701,0.23239,-0.077584,0.28828000000000004,0.097112,-0.49591,0.8427399999999999,0.72165,-0.32247,0.0016085000000000001,-0.46003,-0.42378000000000005,-0.4119,0.13935999999999998,0.22358000000000003,-0.019669,-0.043095999999999995,0.27988,-0.17886,-0.10543,-0.12845,0.26093,0.13995,0.33542,-0.044355,0.012681,0.38099,0.17815999999999999,0.20287,-0.006035,-0.14970999999999998,0.48061000000000004,0.1026,-0.0012804000000000001,-0.46646000000000004,-0.12251,-0.61802,-0.11984000000000002,-0.24411999999999998,0.48696999999999996,0.15198,-0.12375,-0.18203,-0.24648,-0.29279,0.30012,-0.13002,0.27207,-0.09073400000000001,-0.20984,-0.18907000000000002,0.09369,-0.082137,0.16129000000000002,0.44609,0.61287,0.53203,0.12437000000000001,-0.46568999999999994,0.023443000000000002,0.32677,-0.38223,-0.67184,0.27032,0.37395,-0.78033,0.19241,0.65582,7,0
southern,-0.1764,-0.036137999999999997,0.16204000000000002,-0.28488,0.80333,0.13552999999999998,-0.63845,0.43954,-0.1299,2.8036,-0.5907100000000001,-0.2425,0.075061,-0.52256,-0.058290999999999996,0.3082,0.045547000000000004,0.81724,0.48702,-0.49593000000000004,0.089056,-0.041308,0.414,0.12445999999999999,-0.37942,-0.57127,-0.2819,0.06018,-0.21174,0.30646,0.23615999999999998,0.44773999999999997,-0.1157,-0.38184,-0.25344,0.36708,-0.32395,-0.17386,-0.36241999999999996,0.07840499999999999,-0.22435,0.26099,0.30203,-0.19643,0.27276999999999996,0.039083,0.47011000000000003,-0.14444,-0.009735200000000001,-0.22479000000000002,-0.07309700000000001,0.36753,-0.24345999999999998,-0.12684,0.32106999999999997,0.33558000000000004,-0.37237,-0.091915,0.19526,0.46731999999999996,-0.06733,0.098069,0.18175999999999998,0.6811699999999999,-0.14708,0.26682,-0.016465,0.4628,0.17425,0.51576,-0.33557,0.21907,-0.8059999999999999,-0.072498,0.070018,0.083899,-0.79997,0.5957100000000001,-0.10827,-0.72511,0.18278,0.1845,0.49682,0.2689,0.36069,-0.085064,-0.30285,0.33805999999999997,-0.27003,0.1566,-0.43942,-0.30812,0.17154,0.065206,0.32350999999999996,0.2453,0.23600000000000002,0.22643000000000002,0.13618,0.11947999999999999,-0.0049692,0.53268,0.13706,0.13706,-0.074476,-0.9942,-0.27329000000000003,-0.47927,0.23256999999999997,-0.36465,-0.0049415,-0.05222,-0.50543,0.4411,-0.27394,-0.030102999999999998,0.77064,-0.11742000000000001,-0.9077200000000001,-0.41473999999999994,-0.0128,0.6393399999999999,0.027757999999999998,-0.93791,0.040185000000000005,-0.16582,0.24600999999999998,-0.2383,2.2751e-05,0.19810999999999998,-0.51932,-0.42799,-0.51585,0.010254000000000001,0.086228,-0.21498,-0.070154,-0.36873,-0.0032693000000000006,-0.17933,-1.0746,0.10124,-0.12230999999999999,0.033302,-0.24711999999999998,0.22938000000000003,-0.28864,0.047283,0.22580999999999998,-0.13927,-0.55086,0.33276,-0.092824,-0.096111,-0.5989300000000001,-0.23405,0.28103,-0.072108,-0.072577,0.50333,0.5501699999999999,0.39197,-0.040748,0.47462,0.015241,0.27397,0.09593600000000001,-0.21229,0.38594,0.0067196,0.7916,0.49149,-0.84172,-0.039269,-0.30279,-0.29653,-0.13039,-0.30885999999999997,-0.040139,-0.15041,-0.09788,0.32378,-0.15556,-0.54903,0.23756999999999998,-0.13583,-0.093823,-0.36293000000000003,0.18955999999999998,-0.75857,0.33204,0.19278,0.10054,-0.20828000000000002,-0.29916,-0.6816300000000001,-0.10989000000000002,0.45063000000000003,0.2526,-0.26526,-0.51556,0.0047367,0.23290999999999998,0.63507,0.33571,-0.67445,-0.37892,0.082166,0.17817,-0.16824,-0.15482,0.036489999999999995,0.37088000000000004,0.40526,0.022684,0.27829,-0.28799,0.77684,0.47988000000000003,0.10468,0.23116,-0.022098,0.28670999999999996,-0.13697,0.16122,0.41146000000000005,0.29665,0.031358,0.066348,0.9537,-0.26206,-0.18282,0.21688000000000002,-0.15119000000000002,0.26311999999999997,-0.1009,0.26132,0.059746,0.28753,-0.09131399999999999,-0.01197,-0.073587,0.19046,-0.57907,-0.39198,0.37875,0.18236,-0.21558000000000002,0.00069781,-0.5736,-0.31425,0.26002,1.0018,0.38795999999999997,0.058523,0.51445,-0.13063,-0.029064999999999997,-0.43108,0.13252,-0.24928000000000003,-0.070262,0.053964,-0.086744,-0.1556,-0.6286,-0.011483,0.029142,-0.7245199999999999,-0.15665,-0.6118399999999999,0.13814,-0.68318,-0.3885,0.1609,0.10855999999999999,-0.15547,-0.47103,-0.027794,-0.6836399999999999,0.037137,-0.36969,-0.18913,0.31306999999999996,0.015637,0.020233,0.43349,0.12996,0.068104,-0.11569000000000002,-0.095196,0.55243,-0.53684,-0.45888999999999996,-0.2797,-0.032524000000000004,0.20238,0.28838,-0.46335,-0.16362000000000002,8,0
booking,-0.27335,0.46861,-0.044701,-0.6128600000000001,0.6237699999999999,0.1777,-0.057149,-0.97651,-0.5151399999999999,2.1524,-0.64886,0.46153999999999995,0.2621,0.42696000000000006,0.17998,-0.6779,-0.38185,0.5966199999999999,0.80079,0.064957,-0.088894,0.16094,-0.69204,0.29199,0.10396,0.09546900000000001,-0.45868000000000003,-0.45395,0.2833,0.39566,0.6711,-0.2517,0.70413,0.4896,-0.54974,0.51723,0.16095,-0.22273,-0.10019,-0.5223800000000001,0.058847000000000003,-0.16141,-0.31426,0.016699000000000002,-0.92274,0.30612,0.34917,0.22745,0.14969000000000002,-0.09249199999999999,0.19867,-1.0052,0.25286,-0.29298,-0.26254,-0.074007,0.31866,-0.18537,-0.095072,0.12611,0.55165,-0.17948,-0.05198099999999999,-0.69881,-0.2147,0.5512699999999999,-0.58417,0.90466,0.12972,0.67237,0.4709,0.15409,0.21345,-0.65658,-0.044397000000000006,0.055279999999999996,0.26965,-0.43032,-0.080327,0.16617,0.048945999999999996,0.12757000000000002,0.022223,-0.61865,0.35523000000000005,0.43683,-0.14995999999999998,0.70031,0.86408,-0.42762,0.1251,-0.022322,-0.44421000000000005,-0.062334,-0.24852,0.077948,-0.22804000000000002,-0.033049,0.28905,0.45869,-0.16041,0.077712,-0.6985899999999999,0.018502,0.42371000000000003,-0.15249000000000001,0.029887999999999998,0.19639,0.24065999999999999,0.15267,-0.84846,-0.44486000000000003,0.25916999999999996,0.12672,0.28836999999999996,-1.0414,0.44461999999999996,0.29135,-0.24769000000000002,0.074673,-0.1079,0.031471,-0.1191,-0.16253,0.14238,0.0056387,0.14473,-0.41733000000000003,0.16918,-0.30506,0.40318000000000004,-0.60251,-0.30019,-0.55676,-0.042865,0.2516,0.072263,-0.048761,-0.12314000000000001,-0.2232,-0.086061,0.036564,-0.4078,-0.5643199999999999,0.203,-0.09087999999999999,-0.0038906999999999995,-0.19679000000000002,0.65795,0.42844,0.26795,0.26636,-0.08116,-0.59641,-0.055684000000000004,0.49261000000000005,0.75105,-0.19262,0.58254,0.47984,-0.099377,-0.20899,0.033986,-0.69503,0.78845,-0.36230999999999997,-0.38178,0.26748,0.035697,-0.20703000000000002,-0.38629,-0.052298000000000004,-0.49561000000000005,-0.28605,0.30326,0.46738999999999997,-0.29886999999999997,-0.21553000000000003,-0.38650999999999996,0.35853,0.32531,-0.30309,-0.24404,0.61492,0.43266000000000004,0.34407,-0.12412000000000001,-0.41236999999999996,-0.21688000000000002,0.11054000000000001,0.27301,0.016571000000000002,0.28176,0.30969,-0.38345999999999997,-0.017324000000000003,-0.31355,0.30529,0.37955,0.18623,0.7809999999999999,-0.49937,-0.57158,-0.093205,0.61719,0.097354,-0.53408,0.3006,-0.4136,0.8668399999999999,0.31282,-0.01712,0.20673000000000002,0.29327,0.0024739000000000002,0.68905,-0.15842,-0.15242999999999998,-0.22434,1.0553,0.25074,-0.0971,0.18402000000000002,-0.078667,-0.46115,-0.22058000000000003,-0.62784,0.36025,-0.19807,-0.20392000000000002,0.7602300000000001,-0.11235,0.29633000000000004,-0.17452,0.13346,0.21652,-0.40812,-0.039733,-0.5172899999999999,0.11164,-0.1875,0.071014,-0.20826999999999998,0.27507,0.61763,0.35334,-0.24918,-0.14243,0.17081,-0.25065,-0.1067,0.015773,-0.13368,-0.18525,0.17862999999999998,0.9535799999999999,-0.43881000000000003,-0.8211200000000001,-0.019408,-0.24891999999999997,0.25656,-0.21863000000000002,0.50208,-0.52287,-0.08781699999999999,-0.74632,0.079291,0.40763,0.09804500000000001,-0.24241,-0.48015,-0.10553,0.47711000000000003,-0.0042015,0.49609,0.7385,0.056491,-0.47455,0.32782,0.12112,-0.16793,0.18539,0.49418,0.45966,0.5110899999999999,0.29986999999999997,0.47284,-0.59555,0.63005,0.17979,-0.023544,0.27655,-0.017205,0.19914,0.49559,0.25056999999999996,-0.06745,-0.033854,0.8844799999999999,0.44173,1,0
apple,-0.36391,0.43771000000000004,-0.20447,-0.22889,-0.14227,0.27396,-0.011434999999999999,-0.18578,0.37361,0.75339,-0.30591,0.023740999999999998,-0.77876,-0.13802,0.066992,-0.064303,-0.40024,1.5309,-0.013897,-0.15657000000000001,0.25366,0.2161,-0.3272,0.34974,-0.064845,-0.29501,-0.63923,-0.062016999999999996,0.24559,-0.069334,-0.39966999999999997,0.030925,0.49033000000000004,0.67524,0.19480999999999998,0.51488,-0.31149,-0.079939,-0.6209600000000001,-0.0053277,-0.11264,0.08352799999999999,-0.0076947000000000005,-0.10787999999999999,0.16627999999999998,0.42273,-0.19009,-0.29035,0.045630000000000004,0.1012,-0.40855,-0.35,-0.36175,-0.41396000000000005,0.59485,-1.1524,0.032424,0.34364,-0.19209,0.043255,0.049227,-0.5425800000000001,0.91275,0.29575999999999997,0.023658000000000002,-0.68737,-0.19503,-0.11059000000000001,-0.22566999999999998,0.2418,-0.3123,0.42700000000000005,0.083952,0.22703,0.30580999999999997,-0.17276,0.32536,0.005469600000000001,-0.32745,0.19439,0.22616,0.07474199999999999,0.22033000000000003,-0.40301,-0.31594,-0.02891,0.9785799999999999,0.7186,0.14995,0.063421,0.28331999999999996,-0.15231,0.0003933,0.18076,-0.40199,0.060187,-0.027543,0.1659,-0.25774,0.1615,0.37246999999999997,-0.38273,0.24011999999999997,-0.042617,-0.66785,-0.94437,0.27915999999999996,0.10475999999999999,1.3952,-0.14296,-0.5504899999999999,0.053982,-0.7752399999999999,-0.28255,-0.023323,0.24800999999999998,0.22855,-0.37408,0.076012,0.24031,0.10745999999999999,0.12410999999999998,-0.20676,-0.25804,-0.16791,0.43499,0.61762,-0.029955000000000002,0.16196,-0.29001,-0.31159000000000003,-0.8726200000000001,0.43167,-0.15070999999999998,-0.4142,-0.5373,-0.1991,0.1327,-0.15018,-0.49335,-2.5127,0.3166,0.36396,-0.059248,0.03112,0.041070999999999996,0.016916999999999998,0.5841,-0.20201,0.070238,0.8754700000000001,-0.20114,0.5192,0.26786,-0.55643,-0.31246999999999997,-0.37992,0.42857,0.4178,0.30608,-0.21656999999999998,0.72464,0.61734,0.058085000000000005,-0.62708,0.052895000000000005,-0.25628,-0.32688,-0.6128,0.6260899999999999,-0.17965,0.88925,0.21963000000000002,-0.0034052,-0.078663,0.34799,-0.26061999999999996,0.008041,0.11721,-0.45147,-0.12178,-0.5703,0.46602,0.025059,0.053986,-0.76693,0.13172999999999999,-0.028776,-0.41915,-0.24415,-0.40295,-0.4152,0.037643,-0.14843,0.026094,0.15315,0.3831,-0.55825,-0.33433,-0.027939,-0.43712,-0.31801999999999997,-0.31731,0.092891,-0.099397,-0.18846,0.052270000000000004,0.29061,1.0639,0.099584,-0.56775,0.29446,0.37797,-0.21905,-0.5261600000000001,-0.41744,-0.65951,-0.4082,-0.60945,0.011759,-0.29122,-0.31456999999999996,0.057076,0.41503,0.37345,-0.047119,-0.071996,0.14587,-0.30763,0.10759,-0.5944699999999999,-0.40205,0.30677,-0.19891,-0.70775,-0.11513,0.30866,-0.69235,0.21219000000000002,0.10554000000000001,0.22616999999999998,-0.26145,-0.39298,-0.23585,0.030795,-0.10192999999999999,0.3207,0.30505,-0.5347,-0.07927200000000001,-0.16817000000000001,-0.22115,-0.35143,-0.092376,0.14686,-0.19859000000000002,0.2046,0.20276,0.36144,-0.35867,0.40095,0.063686,-0.12763,-0.16226,-0.31763,-0.58732,-0.54009,-0.49035,-0.46035,-0.19794,-0.25209000000000004,0.25706,0.4011,0.052829999999999995,-0.32079,0.39563000000000004,-0.44511999999999996,-0.091862,-0.19243,0.15397,-0.28923000000000004,0.60561,0.58133,0.32268,0.06389199999999999,0.085438,0.14956,0.38134,-0.1182,-0.23951,-0.6773100000000001,0.2809,-0.5177,-0.41098,-0.41292,-0.067856,-0.033721,-0.72958,-0.47891000000000006,0.72956,4,0
facebook,-0.040208,0.45171999999999995,-0.293,0.43091999999999997,-0.0095025,-0.11083,0.40694,-0.50672,0.29662,1.0715,-1.2411,-0.033061,-0.36393000000000003,-0.11479,-0.25866999999999996,0.31193000000000004,-0.46345,0.89279,-0.35262,0.36238000000000004,0.051563,0.63774,-0.11584000000000001,-0.14786,0.18069000000000002,0.13066,-0.14835,0.30368,0.048362,0.03512,0.94239,-0.13421,0.066475,0.068271,-0.5885100000000001,-0.17054,-0.50741,0.10769000000000001,-0.32255,-0.37726,-0.59285,-0.38139,0.27594,0.30271,-0.053278,0.27368000000000003,-0.28448,-0.1532,0.24631,-0.022034,-0.27442,0.21425999999999998,0.12086,-0.6724600000000001,-0.70645,-0.48455,-0.38587,0.1253,0.32639,0.42798,-0.29256,0.34076999999999996,0.18941,-0.070367,0.50976,-0.56903,-0.27402,-0.45052,0.30283000000000004,0.098248,0.028658,-0.025134,0.595,-0.14705,0.59954,-0.071422,0.52086,0.06598899999999999,0.54677,0.39859,0.28636,0.28156,-0.30862,-0.056089,0.5495,0.31555,0.38705,-0.49983999999999995,0.35943,-0.40998,0.31044,-0.074205,-0.35329,-0.082788,0.25949,0.46937,-0.42727,0.5065,-0.05165700000000001,0.12165,0.13498,-0.22737,0.11825999999999999,0.41451000000000005,0.17532,0.15864,0.1614,0.34781999999999996,0.08480499999999999,0.30521,-0.42528999999999995,-0.28199,0.13583,-0.076556,-0.153,-0.3762,0.15103,0.085879,-0.58453,0.33132,-0.26514,0.09489199999999999,0.27736,-0.41931,0.53608,0.23317,-0.07055700000000001,-0.08235,0.29513,0.16184,-0.40136,-0.52189,-0.13824,-0.22709000000000001,-0.20596,-0.62187,-0.33203,-0.26844,-0.64784,-0.33136,-2.0425,-0.17468,0.060905999999999995,0.27024000000000004,0.011590999999999999,-0.12793,0.27019,0.049819999999999996,-1.1911,0.17742,0.9479799999999999,0.082096,-0.065339,0.073712,0.083521,0.56813,0.20282999999999998,0.013994999999999999,0.32589,-0.33671999999999996,0.16849,-0.07423099999999999,-0.25572,0.0033443000000000006,-0.2921,-0.1543,-0.12133,-0.030793,-0.22019,0.037791000000000005,-0.16999,0.16847,0.52977,0.35067,0.1032,0.17764000000000002,-0.124,-0.052373,0.35844000000000004,0.084172,0.15397,-0.070376,0.22476999999999997,-0.036192,0.40441,0.067439,-0.52518,-0.35627,-0.062311,-0.60946,0.27385,-0.40908,-0.36445,0.16462000000000002,0.5012800000000001,0.38795999999999997,0.28858,-0.24045,0.58643,0.26648,0.079587,-0.33135,0.10878,0.049555,-0.07707,-0.43013,0.14267,0.19713,-0.21349,-0.57323,-0.47313,0.067642,-0.1296,0.48991,-0.33174000000000003,0.0074987,0.40583,-0.45282,-0.82316,0.24975,0.024184,0.24095999999999998,-0.28715999999999997,0.31768,-0.19977999999999999,-0.22451,-0.1179,-0.15092,-0.27011,-0.31616,-0.042933,-0.056863,0.043857,-0.32287,0.078086,-0.44073999999999997,-0.41485,0.13788,0.40076,0.029358999999999996,0.006910899999999999,-0.24681999999999998,0.17942,-0.019505,0.33459,-0.38616999999999996,0.15169000000000002,0.47700000000000004,-0.051586,-0.1176,-0.008778399999999999,-0.41849,-0.40871,-0.33359,-0.032145,-0.31819000000000003,-0.8654,0.16694,-0.37925,-0.82204,0.6914600000000001,0.1324,0.17669,-0.26028,0.14805,-0.19672,-0.064073,0.09907200000000001,0.66072,0.041769,-0.6673399999999999,-0.072698,0.10475,0.60805,0.18929,-0.19129000000000002,-0.63454,-0.48311000000000004,0.12869,0.066076,-0.21339,0.22583000000000003,0.34755,0.17862,0.27708,0.12599000000000002,0.075206,0.13223,-0.024557,-0.21074,-0.34584000000000004,0.17672000000000002,0.59915,0.20234000000000002,0.6172,-0.052586,0.094889,-0.3472,-0.4818,0.68565,7,0
aluminum,0.033366,0.35278000000000004,-0.030257,0.10207000000000001,-0.38975,0.15449000000000002,-0.1988,0.33399999999999996,-0.78082,-0.15238,0.54292,-0.10665,0.49881000000000003,0.035013999999999997,-0.18469000000000002,-0.3924,0.20096,3.1128,-0.27446,0.21875,-0.43375,-0.50242,0.40257,-0.17727,-0.077788,-0.22796,-0.19232,-0.055989,0.29058,0.16485,0.11962,0.05118,-0.58885,0.14825,0.53,0.0013997,0.2325,-0.36861,0.70962,-0.43846999999999997,0.32147,-0.0882,0.13734000000000002,-0.67743,0.27141,-0.7962600000000001,-0.41684,-0.9648100000000001,0.35846,-0.13449,0.47173999999999994,0.18499000000000002,0.23233,-0.49262,-0.46176999999999996,-0.11922,0.19813,-0.14734,-0.11137000000000001,0.65915,-0.42608999999999997,-0.044838,0.09346900000000001,0.6755,-0.17672000000000002,-0.60943,-0.24089000000000002,-0.25755,-0.35511,0.26079,-0.41273999999999994,-0.12683,0.28599,0.7712,-0.41353999999999996,0.6873600000000001,-0.61887,0.21206999999999998,-0.24181,0.06216699999999999,-0.1346,-0.22258000000000003,-0.012869,-0.49665,0.17929,0.21698,0.7018399999999999,1.5602,-0.26065,-0.09391000000000001,0.87377,-0.70273,-0.37769,0.053692,0.25845,-0.017027,0.59319,-0.34219,0.4185,-0.2148,0.83504,0.20452,-0.37731,0.17138,-0.45028999999999997,-1.3425,0.39716999999999997,-0.49708,0.19595,-0.011142,-0.48103999999999997,0.44893,0.25085,-0.41281999999999996,-0.034982,0.11356,0.38341,0.11012999999999999,0.58143,0.25654,-0.33247,0.039711,0.09639099999999999,-0.16917000000000001,0.4595,-0.40914,0.22568000000000002,-0.35966,0.1214,-0.35338,-0.023883,0.18048,0.28676,0.2925,0.23021999999999998,-0.047092,-0.34038,-0.11639000000000001,-0.23196,-0.19303,-1.0868,0.2045,0.73024,-0.10078,-0.255,-0.1601,-0.29964,0.15166,0.93281,-0.32749,-0.19683,-0.12617,0.12445,0.12395,0.36009,-0.15352000000000002,0.25299,0.39363000000000004,-0.3255,0.29398,0.1212,-0.49426000000000003,-0.35965,-0.65282,0.17986,-0.1194,-0.085405,-0.28352,0.15980999999999998,-0.023193000000000002,0.5048199999999999,-0.058127,-0.75313,0.30383000000000004,-0.57085,-0.17194,0.2471,-0.055092999999999996,-0.016355,-0.39319,-0.037558999999999995,0.71515,0.34568000000000004,-0.41206000000000004,0.061799,0.13794,0.27688,-0.25401,-0.39168000000000003,0.19482,-0.23301,-0.76939,0.0036994,-0.14292,-0.28717,0.14267,-0.21555,0.044897,-0.44335,0.22186999999999998,0.054107,-0.039502999999999996,0.61246,0.21147,0.51286,-0.14831,0.12311,-0.5895600000000001,0.6399199999999999,0.18058,0.14211,0.5452,-0.047577,-0.32629,0.30809000000000003,0.55006,0.052141999999999994,0.19509,-0.43254,-0.24954,-0.7418399999999999,0.63168,-0.19059,0.52261,0.29364,-0.36099000000000003,-0.34954,0.1861,0.072911,0.15641,0.31575,-0.60743,0.32591,0.16762,0.53759,0.0082683,0.21986,0.7901100000000001,0.2943,0.59782,0.7880699999999999,0.46831000000000006,0.093409,0.10707,0.21553000000000003,0.18729,0.11587,-0.038479,-0.23201,0.25132,0.12188,0.1315,-0.22716,-0.30931,0.34074,0.25499,0.45237,0.06071,-0.1185,0.5071100000000001,0.52449,-0.22079000000000001,-0.27926,0.21491999999999997,0.26009,0.45452,-0.5981,0.031823000000000004,-0.5606399999999999,0.46513999999999994,1.1548,-0.55821,0.1353,-0.10089,-0.15267,-0.11560999999999999,0.6731199999999999,0.58119,-0.21279,-0.5869,-0.25566,0.51054,0.43216000000000004,0.057317999999999994,-0.08584800000000001,-0.27076,-0.31749,-0.083011,0.034789,0.0035954,-0.61041,-0.6245,0.25627,-0.56388,-0.29462,-0.090651,0.1246,-0.017494,-0.094966,0.5885699999999999,8,0
waters,0.45056,-0.31617,0.33552,-0.12462000000000001,0.31971,-0.16357,-0.25482,0.58838,-0.6793600000000001,2.4852,-0.063943,-0.32935,0.39275,-0.16951,-0.48653,-0.0074547,-0.19146,1.1084,0.25427,-0.49035,0.14218,0.31035,-0.43701,0.24223000000000003,-0.43418,-0.5754100000000001,0.23360999999999998,0.37137,-0.31049,0.072336,-0.35964,-0.0053497,-0.38116,-0.8251700000000001,-0.32158000000000003,-0.56712,0.34437,-0.26461,-0.36027,0.40039,-0.3913,-0.42405,0.37974,-0.14304,0.6550699999999999,0.22433000000000003,-0.34149,0.19213,0.1084,-0.5129,0.15402000000000002,0.69809,-0.31115,0.44338,-0.015000999999999999,-0.45178,-0.46442,-0.062486,0.20964000000000002,0.34178000000000003,0.32271,-0.09901,0.39692,0.34725,-0.9964299999999999,0.5506300000000001,-0.14518,-0.094649,-0.42503,-0.47713999999999995,-0.7410800000000001,0.22835,0.11953,0.22635,0.063848,-0.20928000000000002,-0.4321,0.8202200000000001,-0.029983,-0.80047,0.50351,-0.14387,-0.19605,0.33728,0.53273,-0.37926,0.10908,0.46225,-0.47566,0.62316,-0.082113,-0.54269,0.11534000000000001,0.25115,0.52957,0.075634,-0.08372,-0.08659,0.066134,0.04562,0.33088,-0.59531,-0.50227,-0.026430000000000002,-0.15109,-1.2239,-0.35643,-0.003668,-0.0038333,-0.5714199999999999,0.34174,-0.23967,-0.33082,0.34017,0.2866,-0.11472,0.6229100000000001,0.12742,-0.16227,0.12420999999999999,0.038375,0.21329,-0.44531000000000004,-0.74319,0.20464000000000002,-0.1993,-0.27645,0.025296000000000003,-0.17642,-0.21358000000000002,-0.070903,-0.45013000000000003,0.16174000000000002,-0.28168000000000004,0.25213,1.1472,-0.20526,-0.27676,0.49486,0.18145,-1.0232,0.41268,0.27155999999999997,-0.043829,0.23556,-0.16672,0.19368,-0.013474000000000002,-0.033678,-0.12079000000000001,0.12894,-0.064432,0.4024,0.41905,-0.21316999999999997,-0.52417,-0.40648,1.1145,-0.036978,0.20524,0.6806800000000001,-0.316,-0.18042,0.8987700000000001,0.37051999999999996,0.39305,-0.00014317,-0.29629,0.26102,0.35978000000000004,0.10699000000000002,0.38003000000000003,0.019323,-0.47202,0.1555,0.29085,0.07786599999999999,-0.62948,-0.098082,-0.23312,-0.13532,-0.24727,-0.1057,-0.4494,0.66198,-0.19712000000000002,0.36206,-0.020798,-0.24035,-0.5239199999999999,0.60516,-0.058365,-0.19837,-0.16245,0.055285,0.11717999999999999,0.31764000000000003,0.84657,0.35375,-0.043462,-0.44103000000000003,0.9007799999999999,0.26633,0.42668,0.34742,-0.22505999999999998,0.028373000000000002,0.61442,-0.16055,-0.24498000000000003,-0.42368999999999996,-0.22416,0.2239,0.06409400000000001,-0.06754,-0.36951,0.30487,-0.06473,0.46428,0.22744,-0.045437,0.62778,0.30071,-0.242,-0.089992,-0.48691,0.52079,-0.26244,-0.50198,0.12138,0.46653999999999995,0.10407000000000001,0.63042,0.17099,0.29175999999999996,0.096847,0.1658,-0.28558,-0.22626999999999997,-0.60727,0.041229,-0.48891,0.49673999999999996,-0.18663,-0.19343,0.067107,-0.26337,-0.26339,-0.22395,-0.05606799999999999,0.18384,-0.14620999999999998,-0.12429000000000001,0.14211,0.31205,0.77113,0.095605,0.033960000000000004,-0.059891999999999994,0.01771,0.087264,0.14399,0.19455,-0.01915,0.5732,-0.5013,0.13312000000000002,0.44461999999999996,-0.4797,-0.18974000000000002,-0.11252999999999999,0.16373,-0.087801,0.30009,0.68545,-0.45321000000000006,-0.040538,-0.10837999999999999,-0.048038,-0.076519,0.32014000000000004,-0.6429699999999999,0.00014069999999999998,-0.29291,0.19969,0.043485,0.49449,0.0070942999999999996,0.7522300000000001,-0.068051,-0.22964,-0.45419,-0.35281,-0.66586,0.12262999999999999,0.4367,-0.3714,0.030978,-0.1426,-0.9683200000000001,8,0
packaging,-0.37755,0.14665999999999998,0.12503,-0.43476000000000004,0.11064,-0.052051,0.047949,-0.7477699999999999,-0.34703,0.51726,-0.013561000000000002,-0.042151,0.43955,-0.21359,0.69772,-0.9959899999999999,0.81731,2.4061,0.2945,0.61531,0.11604,0.63683,0.28267,0.53257,-0.030358999999999997,-0.074414,0.19394,-0.08090499999999999,-0.16906,-0.47911000000000004,-0.49113,-0.44247,-0.10449000000000001,0.074073,-0.44188999999999995,0.64722,0.076638,-0.0021585999999999997,0.36313,0.17027,0.55615,-0.0097413,-0.24871,-0.21961,-0.22591,-0.01122,-0.34605,-0.07517599999999999,0.13204000000000002,0.15384,0.48688000000000003,-0.53066,-0.006391600000000001,-0.31235999999999997,0.33463000000000004,-0.32624000000000003,0.14448,-0.052016,0.26286,-0.245,0.22391999999999998,-0.6584399999999999,-0.06474099999999999,-0.007582500000000001,0.3025,-0.31764000000000003,0.14636,0.26465,-0.069564,-0.12545,-0.12747,-0.42008,-0.092761,0.05873099999999999,0.32135,0.38106999999999996,-0.19698,-0.48321000000000003,0.43528,-0.096719,0.23601999999999998,0.6332300000000001,0.65187,0.010235,-0.043069,-0.66473,0.1632,1.3708,-0.084075,-0.08239400000000001,0.086858,0.15742,-0.15905999999999998,-0.06606000000000001,0.51676,-0.036967,0.38618,-0.45924,-0.090014,-0.6201,-0.30272,-0.53733,-0.5466300000000001,0.19776,-0.022462,-1.4535,0.4423,0.027385000000000003,-0.18287,-0.13681,-0.08856,-0.36767,0.084444,-0.3924,-0.1109,-0.035117,0.43996,-0.30785,0.15235,0.30349,0.14082,0.27258000000000004,-0.31747,0.23594,-0.21594000000000002,-0.65875,0.24873,0.22200999999999999,0.29518,0.18058,-0.24945,-0.42013999999999996,0.23959,-0.14082,0.26784,-0.24092,-0.6564300000000001,-0.06322799999999999,0.7480399999999999,0.29311,-0.7445,-0.40219,0.21803000000000003,-0.17022,-0.2571,-0.27028,-0.72339,0.22059,0.38185,-0.081975,0.23109000000000002,0.28717,0.21358000000000002,-0.14879,0.5405,-0.17239000000000002,-0.24245,-0.28087,-0.04233,0.29024,-0.63334,0.41435,0.1691,0.50316,-0.63571,0.14636,-0.41811000000000004,-0.13533,0.30611,0.19557,0.55547,-0.0070638,-0.5614899999999999,0.29811,-0.015093,-0.40571,0.1741,-0.010944,-0.15241,0.083531,0.63183,-0.4085,0.66089,-0.81758,-0.22719,-0.1223,0.24136,-0.22614,-0.54272,0.54668,0.15386,-0.33221999999999996,0.31792,0.024566,0.3588,0.44393,-0.014309,0.31526,0.5000100000000001,0.17545,0.93775,-0.037042,-0.29191,-0.15592999999999999,0.25597,0.31224,-0.41521,0.52722,-0.23645,0.47365,0.11367999999999999,-0.022248,-0.29255,-0.33631,0.47205,0.10887000000000001,0.25316,-0.08965,-0.62044,-0.13126,-0.68817,0.077111,0.14768,0.37609000000000004,0.32438,0.098583,0.32063,0.17592,-0.30095,-0.0050869999999999995,-0.18203,-0.33836,-0.42568999999999996,-0.3455,-0.10280999999999998,0.05081,0.32983,0.050881,0.0054829,-0.13965999999999998,0.058588999999999995,0.36743000000000003,-0.34292,-0.14502,0.2966,0.7092,-0.10642,-0.18092,-0.20298,0.2215,-0.23149,0.28772,-0.27881,-0.66555,0.44264,-0.30001,0.06756799999999999,0.33415,0.012186,-0.19738,0.18985,0.39916999999999997,-0.6319,0.21122,0.25244,0.57287,0.45786000000000004,0.15982000000000002,1.0345,-0.33349,-0.1471,0.19013,0.16544,-0.17668,-0.13802,0.37353000000000003,0.36073,0.51145,-0.031699,0.32208000000000003,0.006246,0.075373,0.9591299999999999,0.35953,-0.46012,-0.47147,-0.17627,-0.095814,-0.18823,-0.09254,-0.6815100000000001,0.075616,0.20690999999999998,0.25261999999999996,-0.18694000000000002,-0.23121999999999998,0.025049000000000002,0.017236,0.2294,0.51241,1,0
twitter,-0.12251,0.25719000000000003,-0.21091,0.44281000000000004,-0.58085,-0.0054722,0.49878999999999996,-0.60246,0.010544,1.1742,-0.6338600000000001,-0.37516,-0.15104,-0.061974,-0.46066,0.4251,-0.56439,0.47591999999999995,-0.19168,0.11422,-0.056471,0.80786,-0.10832,0.10672000000000001,-0.066236,0.13857,-0.16377,0.35418,0.44285,-0.044087,0.65674,0.08043099999999999,0.25915,-0.0031748,-0.5825199999999999,0.18554,-0.078769,0.15462,-0.68945,-0.36887,-0.56675,-0.23060999999999998,0.021554,0.5273100000000001,-0.058412,0.36154000000000003,-0.32345,0.38393,0.048461000000000004,-0.16924,-0.16589,0.3224,-0.11915999999999999,-0.8102600000000001,-0.6440100000000001,-0.30535999999999996,-0.038446,0.49671000000000004,0.56905,0.44203000000000003,-0.37267,0.5512100000000001,0.13801,0.0038525999999999994,0.5576800000000001,-0.31173,-0.31836,-0.3996,0.10569,0.21711,0.06617,-0.23594,0.18027,-0.31972,0.083785,-0.10497000000000001,0.60138,0.18100000000000002,0.26976,0.17552,0.12183,0.35985,-0.59477,0.21538000000000002,0.60339,0.60646,0.17305,-0.5394899999999999,0.41883000000000004,-0.40113000000000004,0.17340999999999998,-0.4475,-0.31627,-0.061765,0.06417,0.24949000000000002,-0.52189,0.33039,0.099191,-0.016865,-0.007361499999999999,-0.30408,-0.027594999999999998,0.16785999999999998,0.32775,0.16289,0.43615,0.094309,0.30351,0.47605,-0.61065,-0.91704,0.49245,0.087689,-0.22959000000000002,-0.19982,-0.0013787,-0.55355,-0.6908,0.39652,-0.032688999999999996,0.33286,0.47301000000000004,-0.53719,0.72591,-0.09615,-0.4033,0.058477999999999995,0.055541,-0.061832000000000005,-0.09289299999999999,-0.74961,0.1678,-0.31871,-0.43044,-0.31117,-0.050722,-0.4137,-0.552,-0.44716999999999996,-1.7535,-0.24996999999999997,0.08357200000000001,0.1556,-0.11268,-0.31246,-0.093818,-0.31277,-0.89692,0.31117,0.80485,-0.026704000000000002,0.15066,-0.013456000000000001,-0.18282,0.24359,0.32556,-0.14351,0.34763,-0.095582,-0.023437,0.084636,-0.35243,0.14489000000000002,-0.12750999999999998,-0.19103,-0.084129,0.0024351,-0.19804000000000002,0.22284,-0.24884,-0.0030323,0.49262,-0.038889,0.14019,0.32151,0.19705,-0.24256,0.48996999999999996,-0.41802,0.40612,-0.036581999999999996,0.31737,-0.21916999999999998,0.32846,0.07222,-0.52747,-0.11709000000000001,-0.086993,-0.39679000000000003,0.44445,-0.58834,-0.035206,0.36374,0.50279,0.18547,0.30395,-0.20190999999999998,0.29020999999999997,0.19675,-0.34508,-0.5722,0.1085,0.2823,-0.005133100000000001,-0.24258000000000002,0.16343,-0.1955,-0.031048000000000003,-0.52864,-0.59682,-0.32491,0.086262,0.60545,-0.52218,0.32138,0.37106,-0.36359,-0.68282,-0.03419,0.11133,0.42455,-0.49571000000000004,0.52555,-0.44837,-0.19837,-0.16489,-0.24065,-0.40273000000000003,-0.12079000000000001,0.015557,0.15854000000000001,-0.21754,-0.37505,0.12035,-0.6565,-0.35731999999999997,-0.12423,0.27931,0.46082,0.020815,-0.40735,0.2011,-0.31621,0.53632,-0.23445,0.14632,0.45969,-0.010419,0.00071852,0.20676999999999998,-0.55897,-0.27768000000000004,-0.48702,0.01933,-0.80769,-0.74266,0.11064,-0.43701999999999996,-0.77198,0.5274300000000001,0.12619,0.27665,-0.26704,0.032107,0.12042,0.15054,0.22696999999999998,1.177,0.10352,-0.6976899999999999,-0.15859,-0.08598,0.48255,0.26961,-0.26238,-0.35681,-0.3982,0.18877,0.11788,-0.29496999999999995,0.28741,0.087631,-0.055684000000000004,0.029582,-0.04163,0.29819,0.28091,0.018919,0.11177000000000001,-0.059370000000000006,-0.034894,0.8274299999999999,0.52273,0.42594,-0.028076999999999998,-0.1486,-0.5088,-0.71977,0.5801,3,0
universal,0.24423000000000003,0.19379000000000002,0.1925,0.16598,0.43371000000000004,-0.060665,0.39619,0.44401,-0.032202,1.018,0.55343,-0.28053,-0.0044651000000000005,0.35924,-0.2113,0.079526,-0.65373,2.0951,0.24441999999999997,0.6319899999999999,-0.31599,-0.045977,0.7439899999999999,0.14709,0.4922,-0.21534,0.034835000000000005,-0.31825,0.28676,0.75183,-0.1174,0.24635,0.37189,0.28868,0.31254,-0.12689,0.048607,-0.22678,0.032654,0.07469500000000001,0.37384,0.12297000000000001,-0.43717,0.11907000000000001,0.41972,0.09253099999999999,-0.30962,0.19366,-0.21539,-0.37287,-0.11109000000000001,0.29170999999999997,-0.21273000000000003,-0.034182,0.50055,-0.031601,0.27603,0.6975600000000001,0.032746,-0.20836,0.0028036,0.43383999999999995,0.35598,-0.76765,-0.01006,0.10057999999999999,-0.091275,-0.43245,-0.2378,-0.37888,-0.008546799999999998,-0.06758099999999999,-0.1169,0.16674,-0.21791999999999997,0.020093,-0.11319000000000001,0.1597,-0.07061100000000001,0.8240799999999999,-0.13625,0.16249,-0.078591,-0.43138999999999994,0.18381,-0.45763000000000004,-0.58262,0.15623,0.68698,-0.17418,-0.1584,-0.18442,-0.37318,-0.058938,-0.015206,-0.08237699999999999,-0.43416000000000005,0.025467,0.14720999999999998,0.045545,-0.07372000000000001,-0.36772,-0.38113,-0.018975,-0.18595,-2.1329,-0.28565999999999997,0.06869700000000001,-0.33285,0.07245,-0.31834,0.69203,0.021718,-0.7863100000000001,-0.045682,0.20022,0.11800000000000001,0.31073,-0.15587,0.5472600000000001,-0.087806,-0.33426,-0.05218300000000001,0.24208000000000002,-0.6865399999999999,0.31969000000000003,0.21245999999999998,-0.023576,0.27828,-0.33814,0.5052399999999999,-0.11002,0.1711,-0.6049899999999999,-0.36605,0.28439000000000003,0.027371,-0.45776000000000006,-0.4196,0.10027,-0.93937,-0.47938000000000003,0.48762,0.083189,-0.16555,-0.23536999999999997,0.33876999999999996,-0.28757,-0.29552,-0.23731999999999998,-0.30136,-0.68028,-0.027107999999999997,0.18259,0.042388,-0.071664,0.055416,-0.26052,-0.16816,0.41538,0.48633999999999994,0.34319,0.07370499999999999,-0.1848,0.0015773,0.20463,0.28802,0.26184,-0.13419,-0.46165,0.22028000000000003,0.19268,0.44354,-0.30289,0.20931999999999998,-0.10932,0.13541,0.20908000000000002,0.12262,-0.36334,-0.13714,-0.041931,-0.025755,0.10983,0.25706999999999997,-0.47238,-0.52035,-0.054518,-0.024888999999999998,0.09699999999999999,-0.7132,-0.0071025,0.12068,0.12399,0.052534000000000004,-0.10782,-0.78855,-0.050935,-0.056964999999999995,0.1982,0.028323,-0.03115,-0.35154,0.11685,0.14352,-0.024978,0.005278100000000001,-0.13825,0.055466999999999995,0.066702,-0.31686,0.042865,-0.31871,0.17519,0.2853,-0.17862999999999998,0.14188,-0.066222,-0.6090399999999999,-0.074559,0.16519,-0.023474000000000002,-0.45573,0.18609,0.10279,-0.24385,0.20177,-0.18392999999999998,-0.01525,0.049174,-0.41467,0.31937,0.16165,-0.21874000000000002,-0.16759000000000002,0.18915,-0.30783,0.18911,-0.020822,0.54982,-0.26984,-0.030393,0.45825,-0.21359,-0.13352999999999998,-0.11387,0.32213,-0.28339000000000003,0.010505,-0.16846,0.24946,0.13652,-0.11765999999999999,-0.16389,-0.36054,0.33103,0.17867,0.31421,0.28257,-0.07187400000000001,-0.48866000000000004,0.4782,-0.071108,0.39721999999999996,-0.51025,-0.14128,-0.18120999999999998,0.17359000000000002,0.33216,0.49826000000000004,0.43554,0.50989,-0.42368999999999996,0.45005,0.16039,0.091971,0.13243,0.13818,-0.16247,-0.27316,-0.15163,0.14769000000000002,0.59392,0.045617000000000005,-0.5777899999999999,-0.21306999999999998,-0.044932,0.20836,-0.34906,-0.26274000000000003,-0.36182,-0.14114000000000002,-0.024628999999999998,0.60742,0.30086999999999997,0.39916999999999997,0.25514000000000003,-0.31482,0.00093712,0.24798,11,0
discovery,0.07763099999999999,0.14637999999999998,-0.33288,-0.019691999999999998,-0.30961,0.34792,-0.20457999999999998,-0.0049444,-0.21374,2.1234,-0.09710099999999999,-0.2533,0.5661,0.74175,-0.12531,-0.083913,-0.089813,1.325,0.19418,-0.70718,0.46895,-0.12219000000000001,-0.20306,0.082506,0.37289,0.18955999999999998,0.56129,0.44853000000000004,-0.083927,0.37439,-0.07624500000000001,-0.027752999999999996,0.51231,0.42595,0.3233,-0.20856,0.27285,0.060579999999999995,0.22768000000000002,-0.10375,0.42941999999999997,-0.16655,0.37916,0.072924,0.090046,-0.090949,0.10192000000000001,0.25271,0.017678,-0.35714,0.54801,0.082131,-0.020101,0.40319,0.44143000000000004,0.08593300000000001,-0.35613,-0.45733999999999997,0.39569,0.027252999999999996,0.05637999999999999,0.43582,0.40823000000000004,-0.28791,-0.13421,-0.3893,-0.08391799999999999,0.046376,-0.23304,0.10557000000000001,0.06443099999999999,-0.24136,-0.17615999999999998,-0.50592,0.18815,-0.34218000000000004,-0.27841,-0.00039189,-0.25593,-0.025181,0.12402,0.37329,-0.22825,0.34834,0.09198200000000001,-0.72477,-0.48181,0.06854299999999999,-0.33687,0.92465,-0.20619,0.20059000000000002,0.044223,0.06025,-0.099594,0.34260999999999997,-0.24316,-0.32871999999999996,0.39289,0.22926,0.11832000000000001,-0.21048000000000003,0.49709,-0.072526,0.14365999999999998,-1.6346,-0.26603000000000004,0.6029899999999999,0.45558000000000004,-0.16701,0.29089,0.8774700000000001,-0.11263,-0.41848,0.13494,0.19896,0.033568,0.5141100000000001,0.23928000000000002,-0.17554,0.28642,-0.26844,0.12905,-0.24688000000000002,-0.36286,0.022006,-0.20126,0.093364,0.012614,-0.29393,-0.1167,-0.22379000000000002,0.060612,-1.1116,-0.2778,-0.06398999999999999,-0.23496999999999998,-0.24247,0.09752000000000001,-0.15934,-0.50383,-0.068236,0.074556,-0.26197,-0.031263,-0.13494,-0.36476,-0.041704000000000005,0.51052,-0.33699,0.32506,-0.3151,0.068252,0.28312,0.08419199999999999,0.24725999999999998,0.076111,-0.32522,0.26004,-0.06489500000000001,0.069188,-0.38873,-0.14304,-0.32866999999999996,-0.4006,0.8600700000000001,0.56791,0.023882,0.42927,0.034057,0.16787,0.218,-0.2599,-0.10922,-0.35631999999999997,-0.34118000000000004,0.40019,-0.5350600000000001,-0.52366,-0.3433,-0.19137,0.26025,0.5484899999999999,0.14254,0.18095,-0.075544,0.084605,0.13546,-0.10887999999999999,0.50312,-0.20643000000000003,-0.27574,0.098975,0.40836999999999996,0.14495,0.27316,-0.13368,0.10453,0.16935999999999998,-0.11257,-0.5072300000000001,-0.26897,-0.22655999999999998,0.81025,-0.13743,-0.16508,0.46551000000000003,0.055878,-0.24954,0.080627,-0.20339000000000002,-0.35796,0.25515,-0.010190000000000001,-0.32927,-0.55776,-0.075245,-0.30309,0.095748,-0.16322,0.21375,0.1646,-0.37682,0.11155,0.081863,0.070563,0.038342,0.0017403,0.37909,0.099266,-0.0001651,0.36877,0.06289700000000001,-0.098475,-0.14078,0.036106,-0.8252299999999999,0.5612,-0.37485999999999997,0.15498,0.067099,-0.31848000000000004,-0.58255,-0.18315,0.4638,-0.013115,-0.21895,0.1721,-0.28594,-0.024707,0.31616,-0.21439,0.011496,-0.077863,0.2448,-0.38593,-0.46058000000000004,-0.074813,0.10495,0.005947999999999999,-0.017381999999999998,-0.24756999999999998,-0.25218,-0.033371,-0.15225,-0.16841,0.32976,-0.0062031000000000005,0.22105999999999998,0.24971,-0.38991,0.67501,0.011869,-0.10009,0.33695,-0.18734,-0.7729699999999999,-0.094881,0.47136999999999996,0.23598000000000002,0.17573,0.2913,0.41134,-0.1914,0.48666000000000004,-0.18403,0.28401,0.64579,-0.21753000000000003,-0.28415999999999997,-0.34819,0.12188,-0.10860999999999998,0.1892,0.40312,-0.31899,0.13357,0.27519,-0.28291,-0.026117,8,0
employers,0.15245,-0.10184,-0.1307,-0.29367,-0.087187,-0.49718,-0.048198000000000005,0.083337,0.19707,3.0425,-0.79976,0.14432,-0.16572,0.052653,0.052467999999999994,-0.2439,-0.081863,0.52084,-0.20881,-0.14800000000000002,0.30249000000000004,0.066821,0.5710000000000001,-0.083414,0.25539,0.36059,-0.17043,0.21001999999999998,0.33719,-0.23748000000000002,-0.4011,0.25042,-0.33261999999999997,-0.58645,0.19676,-0.1106,-0.34101,0.46896000000000004,-0.1168,0.14328,-0.039981,-0.5264,-0.25999,-0.29546,-0.053033000000000004,-0.10245,0.2152,-0.01883,0.3429,-0.31376,-0.7469,0.012489,-0.054726,-0.49788000000000004,-0.37559000000000003,0.039037999999999996,0.26042,0.39647,-0.49354,-0.27894,-0.22111,-0.6823100000000001,0.022052000000000002,0.19615,0.49418999999999996,0.38999,0.29356,0.31342,-0.23593000000000003,0.6411399999999999,0.28781,-0.12653,0.29481999999999997,0.26681,0.369,0.10464000000000001,1.1984,0.15344000000000002,0.21618,0.082229,0.20090999999999998,-0.0036473,0.08314400000000001,-0.080649,0.18055,0.3978,-0.26561,0.16438,0.26377,-0.07065,-0.19755999999999999,-0.46618000000000004,0.57592,-0.07497899999999999,0.10539000000000001,0.17645999999999998,-0.32791,-0.31254,0.32324,0.13147,0.31424,-0.08332200000000001,0.32113,0.38952,-0.39938,-2.0719,0.1329,-0.28675,-0.57895,0.43094,0.00025291,0.20327,0.048239,0.26852,-0.062088,0.30676,0.6119899999999999,-0.18295,0.19675,0.10188,0.29435,-0.10615999999999999,-0.36175,-0.95226,-0.06508,0.35735,0.25572,0.09983500000000001,0.052017999999999995,0.17289000000000002,-0.19602,0.27258000000000004,-0.11494000000000001,-0.041005,-0.21394000000000002,-0.10967,-0.24531,-0.13765,-0.23356,-0.27247,1.1603,0.032207,0.037458,-0.17515,-0.97598,-0.29377,0.2133,0.27594,-0.040275,-0.21871,-0.18636,-0.38905,-0.40756,-0.3008,0.73228,0.14440999999999998,0.17393,0.24291,0.016782,-0.39143,-0.09413200000000001,-0.38018,-0.054604999999999994,-0.46678000000000003,-0.35186,-0.057244,0.36715,-0.36848000000000003,-0.25613,-0.40739000000000003,0.32369000000000003,-0.2857,-0.078192,0.18621,0.26800999999999997,0.20135,-0.1811,-0.21015999999999999,0.39100999999999997,0.29586999999999997,0.037918,0.54589,-0.028455,0.30212,0.37263,0.10479000000000001,-0.14432,0.11155999999999999,0.22351999999999997,0.44092,-0.062927,0.43571000000000004,0.29212,-0.14669000000000001,0.16126,-0.079638,0.046749,-0.074215,0.44153000000000003,0.21575,0.61838,-0.44298000000000004,0.24263,-0.2042,-0.049374,-0.12150999999999999,-0.043133,0.13502999999999998,0.47615,-0.16235,0.2294,-0.070812,-0.58549,0.55274,0.00034958,0.46308,-0.33971,-0.026410000000000003,-0.39521999999999996,0.062499,-0.05823,0.14619000000000001,-0.21499000000000001,0.13310999999999998,0.45969,-0.063583,-0.20886,-0.19041,0.074172,-1.1154,-0.73374,0.034722,0.09013600000000001,-0.37163,0.45553,0.36119,0.1201,-0.45706,0.026402,0.18338,0.06465599999999999,-0.10419,0.8538399999999999,0.41547,0.28125,-0.1013,-0.051364,-0.2331,0.19004000000000001,0.17586,0.12325,0.27209,-0.7168,-0.1771,-0.30585999999999997,0.19077,-0.43856999999999996,0.43576000000000004,-0.15220999999999998,0.7347199999999999,-0.31304,0.40297,0.078749,0.37817,-0.27034,-0.25501,0.22345,-0.24864,0.50821,-0.30778,0.073548,-0.29104,0.61353,0.15347,-0.31114,-0.059355,-0.80848,0.21298000000000003,0.29739,0.55779,-0.0032466,0.015821,-0.07933899999999999,1.0278,0.72653,-0.5683199999999999,0.099277,0.32418,0.30495,-0.20265999999999998,-0.51849,-0.10124,0.32638,-0.11671,0.34115999999999996,0.19145,0.038532,0.25816,0.5807399999999999,0.08984199999999999,6,0
highway,0.6008600000000001,0.25943,0.41153,-0.46908999999999995,0.5401199999999999,0.38988,-0.25304,0.18052,-0.19913,2.1977,-0.5049,0.43051000000000006,-0.061987,0.16638,-0.9218799999999999,-0.078023,0.20565,1.4756,0.5571699999999999,-0.11999000000000001,0.306,0.54502,0.5118199999999999,0.18355,0.45353000000000004,0.1663,-0.085704,-0.32011,0.10955,0.18457,0.44914,0.12874000000000002,-0.59506,-0.035422,-0.5564,-0.037593,0.0032803000000000003,0.45848999999999995,-0.095859,0.79978,0.46851000000000004,0.10254,0.18574000000000002,0.1058,-0.73306,-0.066564,0.064444,-0.33255999999999997,-0.80269,-0.29591,0.28876,0.15255,0.30191,0.31366,-0.064765,1.2092,-0.19034,0.19374,-0.24197,0.13717000000000001,-0.18116,-0.33538,0.12869,0.42275,0.23499,-0.14567,-0.35836,-0.14556,-0.09325800000000001,0.071188,-0.31711,-0.37438,0.46202,0.37716,-0.17839000000000002,-0.35547,-0.03336,0.59668,-0.1281,-0.018052000000000002,0.60622,0.13646,0.614,0.36179,0.15112,-0.036274,0.55614,0.070173,-0.12317,0.067406,-0.47313999999999995,0.11478,0.06883600000000001,-0.92825,0.083942,0.12955,-0.077517,0.097898,0.44832,0.027254,0.13025,0.13691,-0.13104000000000002,0.17887999999999998,-0.32742,-0.96235,-0.31587,0.23414000000000001,-0.13985,0.14589000000000002,-0.12303,0.051954999999999994,0.38789,-0.21006999999999998,0.147,-0.6753,0.22396999999999997,-0.22295,-0.41655,-0.55175,0.059444000000000004,0.12605,-0.12599000000000002,-0.5816899999999999,-0.27576,0.1031,0.21828000000000003,0.40418000000000004,0.054649,-0.34356,-0.04835,0.010587000000000001,0.17277,0.043463999999999996,-0.016640000000000002,-0.16408,0.29149,-0.37746,-0.066174,-0.034006,-0.8045,0.22426999999999997,0.12460999999999998,-0.51237,-0.1378,0.037633,-0.53591,-0.14944000000000002,0.2976,-0.024147,-0.47376999999999997,-0.026422,-0.075599,-0.13005999999999998,0.24895,-0.74838,0.052292,0.34278000000000003,-0.48688000000000003,0.35589,0.2572,0.19315,-0.15671,0.49,0.17668,-0.35675999999999997,-0.44995,-0.3611,0.35724,0.59711,0.71307,0.45241000000000003,-0.032901,0.060270000000000004,-0.1015,-0.31863,0.34148,-0.32852,0.18356,-0.3005,-0.082812,0.19796,-0.5358,0.066075,-0.20001,0.28654,0.013711000000000001,-0.25232,0.11797,0.33776,1.1742,-0.28456,0.48702,-0.25615,-0.2009,-0.25146999999999997,0.47962,0.25129,-0.79059,0.17322,-0.62512,0.62879,-0.11897999999999999,0.088113,-0.12027,0.18941,0.4572,0.046618,0.41208999999999996,-0.35734,0.013340000000000001,-0.21323000000000003,0.17392,0.7196199999999999,-0.24161999999999997,-0.20755,-0.43337,0.65914,0.89389,0.53682,0.44156000000000006,-0.28436,-0.29661,0.53973,0.39236,-0.32645,0.09775,0.08580800000000001,-0.096288,0.26284,-0.11043,0.051939,0.050945,-0.42956000000000005,0.27229000000000003,0.046763,0.6513,0.16025999999999999,0.19355999999999998,0.40149,0.13744,-0.28274,0.37564000000000003,0.48566000000000004,-0.23089,-0.10434,0.11934000000000002,-0.30768,0.35468,-0.50773,-0.69018,0.078159,0.48043,0.90833,-0.29755,0.6439,-0.22171,-0.61869,-0.37549,-0.26715,0.24011,0.18233,0.42265,-1.2451,0.16101,-0.42398,0.8567600000000001,-0.042138,-0.48666000000000004,-5.1968e-05,0.15258,-0.33298,-0.26529,-0.13036,0.50484,0.32644,0.091625,-0.25276,0.04145,-0.78275,-0.15323,-0.42905,-0.12967,0.026844999999999997,-0.056725,-0.25545,-0.12902,-0.27581,-0.28933000000000003,-0.3462,-0.63535,0.10092000000000001,0.49799,0.040326999999999995,0.13427999999999998,-0.022208000000000002,0.21358000000000002,0.076662,0.13310999999999998,0.087395,2,0
progressive,-0.065059,0.040434,-0.13555,-0.21463000000000002,0.47253999999999996,-0.26179,0.16125,0.21483000000000002,0.4684,1.9955,0.38311,0.5163800000000001,-0.36106,0.42302,0.24575,0.45441000000000004,-0.018984,1.0894,0.06939,-0.071171,0.25776,-0.26198,0.11234000000000001,-0.71108,0.43126000000000003,0.30546,-0.052892999999999996,0.4573,0.54097,0.18167,0.44006999999999996,0.5157,0.084073,-0.13783,-0.16614,-0.09771,-0.40986999999999996,-0.25379,-0.32019000000000003,0.21106,0.94425,0.70901,-0.43068,-0.42466000000000004,-0.19919,0.14857,-0.047775,-0.24648,0.070852,-0.28715999999999997,-0.15459,0.58834,0.31217,-0.42649,-0.26669,0.36094,0.16084,0.56857,-0.28442,-0.44788999999999995,-0.96215,0.80384,0.16147999999999998,-0.30839,0.10484,-0.6439199999999999,0.52803,-0.14777,-0.14289000000000002,-0.36423,0.10145,0.11123,-0.27573000000000003,-0.79793,0.1466,-0.56277,-0.35086999999999996,0.56905,0.16545,0.041446,-0.31062,-0.51598,0.58172,-0.1201,0.21018,-0.38699,-0.8831,-0.039491000000000005,0.3129,-0.69616,0.028533,0.039327999999999995,0.60275,0.9466399999999999,-0.0065649,-0.11953,0.18085,0.5755,-0.37556,0.43641,0.07892300000000001,-0.5303100000000001,-0.24481,-0.27771999999999997,0.45564,-1.8792,0.090893,-0.19485,-0.34221,0.8164100000000001,-0.26158000000000003,0.16660999999999998,-0.31656999999999996,-0.075111,-0.0078006,0.09159500000000001,-0.24399,-0.11460999999999999,-0.23223000000000002,-0.33751,0.052574,0.029736000000000002,-0.43496,0.69438,0.078294,-0.045048000000000005,0.11037999999999999,0.029042000000000002,-0.24606999999999998,-0.042988,-0.009037100000000001,-0.45165,-0.6422800000000001,0.28043,0.37768,0.42285,0.1709,-0.23078,-0.075913,0.18101,-0.6967300000000001,-0.064167,0.16984000000000002,-0.52199,0.09739500000000001,-0.20238,0.12293,-0.16025,-0.18217,-0.058649,-0.2132,-0.40786999999999995,-0.27386,0.24519000000000002,-0.14986,0.098099,0.15778,-0.078908,0.13627,-0.11397,-0.022536,0.15294000000000002,0.16837,0.29362,-0.23643000000000003,0.12623,-0.21989,-0.092221,-0.7406,-0.66414,0.16692,0.32647,-0.14415999999999998,0.16492,0.04025,-0.28691,0.092905,0.46736000000000005,0.21379,0.16934000000000002,0.38059,0.42999,0.68466,-0.21929,-0.24858000000000002,0.43331000000000003,0.40901,0.20318,-0.46602,-0.29968,-0.07931,-0.6060800000000001,0.58541,-0.43166000000000004,0.16197999999999999,0.0023257,-0.44693999999999995,0.50975,-0.29329,-0.046472,0.28752,0.10221000000000001,0.45098999999999995,-0.55533,-0.14423,-0.24986,-0.28094,0.018303,-0.051257000000000004,-0.35291999999999996,-0.4229,0.62063,-0.24366,-0.34181999999999996,0.095907,-0.56984,0.37716,0.37983,0.14907,-0.055671000000000005,-0.4725,0.078515,-0.33037,0.18374000000000001,0.18734,0.10096000000000001,0.4295,0.22307,0.38054,0.45133999999999996,0.0027392,-0.43754,0.048846,0.008352799999999999,-0.058325,-0.188,-0.34131,0.30164,0.19572,0.13510999999999998,-0.13182,-0.063291,0.13047,0.42399,-0.35674,0.51931,0.32864,0.26829000000000003,-0.4227,-0.5403100000000001,-0.036948,-0.12190999999999999,0.19053,0.14132,-0.51646,0.040031,-0.20353,-0.06590700000000001,0.35173000000000004,0.87203,-0.46083,0.31076,-0.34506,0.08368099999999999,0.27852,-0.8566,-0.17181,-0.21183000000000002,0.55375,0.7601100000000001,-0.025041,-0.14373,-0.41757,-0.25155,-0.096058,0.37474,0.31056,0.28595,0.29959,0.02647,0.35755,-0.25756999999999997,0.56204,0.51127,0.21932,0.045763,-0.23315999999999998,-0.52117,0.5008699999999999,0.48368999999999995,-0.26834,-0.2695,0.24020999999999998,0.17092000000000002,-0.022835,0.25317,0.48812,-0.2124,-0.17505,0.12985,11,0
eastern,-0.042682,-0.10175,0.20792,-0.25049,0.72947,0.33916,-0.36875,0.31917,-0.24861999999999998,2.5618,-0.5273,-0.013372,0.14217,-0.45286000000000004,0.057226,0.72539,0.038999,0.9655299999999999,0.83691,-0.20056,0.13026,0.10652,0.22749,0.44251999999999997,-0.22860999999999998,-0.59787,-0.28119,0.65933,-0.09778300000000001,0.21048000000000003,0.13971,0.31895,-0.036206,-0.11884000000000002,-0.01407,0.36654000000000003,-0.44533999999999996,-0.25729,-0.58924,-0.023511,-0.30341,0.14916,0.20260999999999998,0.051427,0.58962,-0.25614000000000003,0.12633,-0.1231,-0.22783,-0.35463,0.026016,0.39421,-0.5262100000000001,0.066,-0.04716,0.42026,-0.45203999999999994,0.045558,-0.0029928,0.4885,-0.14042000000000002,0.05632,-0.06116900000000001,0.27749,-0.34208,0.12997999999999998,0.21873,0.4828,0.26118,0.20381,-0.36699,-0.16808,-0.50807,0.095996,0.34321,0.15980999999999998,-0.9090299999999999,0.65065,-0.33655999999999997,-0.5029899999999999,0.29091999999999996,-0.010104,0.46406000000000003,0.42755,0.35965,-0.41823,-0.055951,0.41853999999999997,-0.45071000000000006,-0.034272000000000004,-0.088573,-0.37777,0.19923,-0.11383,0.31039,-0.043016000000000006,0.27538,0.10260999999999999,0.17852,0.32816,-0.051916,0.59505,0.31168,0.087752,-0.19577,-1.0096,-0.65357,-0.5486800000000001,0.11727,-0.26558000000000004,0.11399000000000001,0.021406,-0.60675,0.5705899999999999,-0.30615,0.5977,0.54113,-0.40874,-1.0042,-0.30054000000000003,0.024888,0.37771,0.4626,-0.60396,-0.22956999999999997,-0.40593,0.29734,-0.058122,0.37743000000000004,-0.42201000000000005,-0.16049000000000002,-1.0090000000000001,-0.13274,-0.135,0.044252,-0.21895,-0.05851900000000001,-0.43066000000000004,-0.058237,-0.084524,-0.68084,-0.093301,-0.52687,-0.36989,-0.0018503,0.61665,-0.013575,-0.26488,0.24076,-0.2391,-0.79942,0.15377000000000002,0.1372,0.31913,-0.4791,0.07024,0.33923000000000003,0.27226,-0.08916,1.0902,0.33975,0.25085999999999997,-0.10547999999999999,0.44661999999999996,0.17647000000000002,0.35796,-0.14635,-0.28641,0.18178,-0.32779,0.70597,0.63831,-0.62533,-0.15658,-0.33096,-0.28256,-0.089104,-0.21498,0.3721,-0.39087,0.072003,0.18625999999999998,-0.27646,-0.37264,0.13410999999999998,-0.19159,-0.2534,-0.45406,0.27546,-0.19696,0.6075,0.35668,0.22757,-0.46758999999999995,-0.32093,-0.29916,-0.28681,0.75497,0.17273,-0.37232,-0.21827,0.086681,0.10013999999999999,0.1205,0.44636000000000003,-0.8306100000000001,-0.41008999999999995,-0.11592999999999999,0.4008,-0.028451999999999998,0.1573,-0.15548,0.39484,0.033944,-0.10389000000000001,-0.48863,-0.30021,0.31676,0.37227,0.14556,0.30796999999999997,-0.21106,0.60719,-0.39547,-0.33857,0.40955,0.28126,0.29064,0.024569999999999998,1.0178,-0.41475,-0.26232,0.14204,0.091335,0.3962,0.052246,-0.26598,0.051782,0.40073000000000003,-0.056237,0.06600700000000001,0.13310999999999998,-0.15625,-0.54459,-0.19551,-0.0095125,0.36513,0.12192,0.1905,-0.35821,-0.36307,0.42262,0.8749399999999999,0.077699,0.49021000000000003,0.58418,-0.050224,0.11481,-0.40649,-0.029213,0.29518,-0.1165,0.08267100000000001,0.0068123,-0.035306,-0.7702100000000001,-0.22558000000000003,-0.045317,-0.59007,-0.30062,-0.67215,0.16038,-0.64766,-0.54632,0.078503,-0.18064000000000002,-0.07821900000000001,-0.51072,-0.1152,-0.25681,0.081606,-0.23933000000000001,-0.30739,0.53308,-0.15205,0.39916,0.008917399999999999,0.11241,0.016486,-0.2918,0.060962999999999996,0.33412,-0.72205,-0.52317,-0.1285,-0.25595,-0.031016000000000002,0.065809,-0.48658,-0.11972999999999999,5,0
